{"learner":{"attributes":{"scikit_learn":"{\"_estimator_type\": \"regressor\"}"},"feature_names":["rcount","gender","dialysisrenalendstage","asthma","irondef","pneum","substancedependence","psychologicaldisordermajor","depress","psychother","fibrosisandother","malnutrition","hemo","hematocrit","neutrophils","sodium","glucose","bloodureanitro","creatinine","bmi","pulse","respiration","secondarydiagnosisnonicd9","facid_B","facid_C","facid_D","facid_E"],"feature_types":["int","int","int","int","int","int","int","int","int","int","int","int","int","float","float","float","float","float","float","float","int","float","int","i","i","i","i"],"gradient_booster":{"model":{"cats":{"enc":[],"feature_segments":[],"sorted_idx":[]},"gbtree_model_param":{"num_parallel_tree":"1","num_trees":"100"},"iteration_indptr":[0,1,2,3,4,5,6,7,8,9,10,11,12,13,14,15,16,17,18,19,20,21,22,23,24,25,26,27,28,29,30,31,32,33,34,35,36,37,38,39,40,41,42,43,44,45,46,47,48,49,50,51,52,53,54,55,56,57,58,59,60,61,62,63,64,65,66,67,68,69,70,71,72,73,74,75,76,77,78,79,80,81,82,83,84,85,86,87,88,89,90,91,92,93,94,95,96,97,98,99,100],"tree_info":[0,0,0,0,0,0,0,0,0,0,0,0,0,0,0,0,0,0,0,0,0,0,0,0,0,0,0,0,0,0,0,0,0,0,0,0,0,0,0,0,0,0,0,0,0,0,0,0,0,0,0,0,0,0,0,0,0,0,0,0,0,0,0,0,0,0,0,0,0,0,0,0,0,0,0,0,0,0,0,0,0,0,0,0,0,0,0,0,0,0,0,0,0,0,0,0,0,0,0,0],"trees":[{"base_weights":[1.0986191E-7,-1.0698023E0,2.5064275E0,-1.661751E0,2.5831753E-1,1.721367E0,3.6905859E0,-1.7936732E0,4.6405223E-1,1.4769256E0,3.7590057E-2,1.3698324E0,2.516832E0,3.344697E0,4.4964914E0,-1.9103671E0,1.1209044E-1,9.535807E-1,-3.2844305E-2,1.0830622E0,2.5838516E0,-1.8619452E-1,8.613658E-1,9.304966E-1,1.9128885E0,2.053952E0,3.0986483E0,2.908488E0,3.963793E0,4.312716E0,5.8698845E0,-2.1277568E0,-1.1319191E0,-8.145438E-2,9.018563E-1,2.0115788E0,6.9322866E-1,-2.7903312E-1,8.443986E-1,1.9325353E0,6.848956E-1,3.7943628E0,2.0696697E0,-3.4648207E-1,6.197045E-1,6.6687036E-1,1.7071447E0,1.9247848E0,8.093288E-1,2.957987E0,1.7888716E0,1.9011209E0,3.7250755E0,4.258112E0,2.8830173E0,3.9621842E0,2.7826693E0,5.1002846E0,3.8266358E0,3.8829334E0,4.892829E0,7.052799E0,5.268157E0,-2.2181347E-1,-5.154071E-2,-1.2267162E-1,4.0235125E-2,7.720577E-2,-1.7530413E-2,1.7614187E-1,7.070663E-2,3.4821653E-1,1.7674774E-1,5.3772945E-2,2.0190893E-1,5.9474435E-2,-4.0853973E-2,7.137262E-2,4.2206556E-1,1.69764E-1,2.8474578E-1,5.3359266E-2,1.9030116E-1,3.5353908E-1,5.092043E-1,1.841099E-1,3.3926287E-1,-4.4578865E-2,7.022109E-2,2.8836241E-2,1.3169397E-1,1.4835854E-1,5.5453867E-2,2.7285945E-1,1.5204185E-1,3.0934927E-1,1.6729887E-1,7.029544E-2,1.680484E-1,4.148794E-1,2.6587686E-1,1.689193E-1,2.6511547E-1,2.791453E-1,1.7508265E-1,4.5159054E-1,3.138748E-1,3.7720013E-1,5.486354E-1,2.705413E-1,3.7271172E-1,3.8113734E-1,6.617369E-1,2.6619124E-1,3.7437436E-1,6.898326E-1,4.9509713E-1,3.7080806E-1,4.632859E-1,4.811643E-1,3.72442E-1,4.7406965E-1,5.832733E-1,6.2675023E-1,7.625386E-1,4.8742205E-1,5.7329494E-1],"categories":[],"categories_nodes":[],"categories_segments":[],"categories_sizes":[],"default_left":[0,0,0,0,0,0,0,0,0,0,0,0,0,0,0,0,0,0,0,0,0,0,0,0,0,0,0,0,0,0,0,0,0,0,0,0,0,0,0,0,0,0,0,0,0,0,0,0,0,0,0,0,0,0,0,0,0,0,0,0,0,0,0,0,0,0,0,0,0,0,0,0,0,0,0,0,0,0,0,0,0,0,0,0,0,0,0,0,0,0,0,0,0,0,0,0,0,0,0,0,0,0,0,0,0,0,0,0,0,0,0,0,0,0,0,0,0,0,0,0,0,0,0,0,0,0,0],"id":0,"left_children":[1,3,5,7,9,11,13,15,17,19,21,23,25,27,29,31,33,35,37,39,41,43,45,47,49,51,53,55,57,59,61,63,65,67,69,71,73,75,77,79,81,83,85,87,89,91,93,95,97,99,101,103,105,107,109,111,113,115,117,119,121,123,125,-1,-1,-1,-1,-1,-1,-1,-1,-1,-1,-1,-1,-1,-1,-1,-1,-1,-1,-1,-1,-1,-1,-1,-1,-1,-1,-1,-1,-1,-1,-1,-1,-1,-1,-1,-1,-1,-1,-1,-1,-1,-1,-1,-1,-1,-1,-1,-1,-1,-1,-1,-1,-1,-1,-1,-1,-1,-1,-1,-1,-1,-1,-1,-1],"loss_changes":[2.1451594E5,4.408147E4,2.2241688E4,1.0877445E4,4.6498066E3,4.0213203E3,2.6442734E3,8.1214844E3,5.514678E2,1.1529785E3,2.6984663E3,2.3802422E3,1.1812988E3,1.7921719E3,6.9704297E2,5.8208438E3,3.2229202E2,3.1317163E2,2.4341489E2,6.6059595E2,4.2473096E2,1.4871548E3,5.132532E2,6.6358887E2,5.732871E2,6.209463E2,4.7575586E2,5.089336E2,4.1039062E2,6.1128516E2,2.0129492E2,3.9184531E3,1.0933623E3,1.3582794E2,6.8239716E1,7.4614136E1,1.8817859E2,9.982376E1,1.0595999E2,1.2927051E2,2.4484686E2,5.1226562E1,1.419248E2,1.00028564E3,4.4087482E2,2.3257141E2,1.07238525E2,1.7109595E2,4.5502612E2,1.5714844E2,3.387246E2,2.968579E2,8.08811E1,1.6081201E2,2.3712793E2,1.4135791E2,3.9704102E2,4.4776367E1,2.1842969E2,1.9656836E2,1.25634766E2,1.6694336E0,1.3436523E1,0E0,0E0,0E0,0E0,0E0,0E0,0E0,0E0,0E0,0E0,0E0,0E0,0E0,0E0,0E0,0E0,0E0,0E0,0E0,0E0,0E0,0E0,0E0,0E0,0E0,0E0,0E0,0E0,0E0,0E0,0E0,0E0,0E0,0E0,0E0,0E0,0E0,0E0,0E0,0E0,0E0,0E0,0E0,0E0,0E0,0E0,0E0,0E0,0E0,0E0,0E0,0E0,0E0,0E0,0E0,0E0,0E0,0E0,0E0,0E0,0E0,0E0,0E0,0E0],"parents":[2147483647,0,0,1,1,2,2,3,3,4,4,5,5,6,6,7,7,8,8,9,9,10,10,11,11,12,12,13,13,14,14,15,15,16,16,17,17,18,18,19,19,20,20,21,21,22,22,23,23,24,24,25,25,26,26,27,27,28,28,29,29,30,30,31,31,32,32,33,33,34,34,35,35,36,36,37,37,38,38,39,39,40,40,41,41,42,42,43,43,44,44,45,45,46,46,47,47,48,48,49,49,50,50,51,51,52,52,53,53,54,54,55,55,56,56,57,57,58,58,59,59,60,60,61,61,62,62],"right_children":[2,4,6,8,10,12,14,16,18,20,22,24,26,28,30,32,34,36,38,40,42,44,46,48,50,52,54,56,58,60,62,64,66,68,70,72,74,76,78,80,82,84,86,88,90,92,94,96,98,100,102,104,106,108,110,112,114,116,118,120,122,124,126,-1,-1,-1,-1,-1,-1,-1,-1,-1,-1,-1,-1,-1,-1,-1,-1,-1,-1,-1,-1,-1,-1,-1,-1,-1,-1,-1,-1,-1,-1,-1,-1,-1,-1,-1,-1,-1,-1,-1,-1,-1,-1,-1,-1,-1,-1,-1,-1,-1,-1,-1,-1,-1,-1,-1,-1,-1,-1,-1,-1,-1,-1,-1,-1],"split_conditions":[2E0,1E0,4E0,1E0,9.7E0,1E0,1E0,1E0,9.7E0,2.8E1,1E0,3E0,3E0,5E0,2.8E1,1E0,1E0,5.8333335E0,1E0,5.8333335E0,5.8333335E0,7.2E0,7.133333E0,9.7E0,9.7E0,3.1E1,9.7E0,9.7E0,9.7E0,5E0,9.45E0,1E0,1E0,9.8E0,5.733333E0,2.7258926E1,7.0333333E0,5.8333335E0,3E1,1E0,7.133333E0,8.7E1,7.35E0,2.8E1,1.44E1,5.8333335E0,8.730135E-1,5.8333335E0,1.44E1,5.733333E0,1.44E1,9.7E0,9.7E0,2.6E1,7.133333E0,1E0,1.44E1,9.6039E1,1.43E1,9.7E0,7.3E0,1E0,5E0,-2.2181347E-1,-5.154071E-2,-1.2267162E-1,4.0235125E-2,7.720577E-2,-1.7530413E-2,1.7614187E-1,7.070663E-2,3.4821653E-1,1.7674774E-1,5.3772945E-2,2.0190893E-1,5.9474435E-2,-4.0853973E-2,7.137262E-2,4.2206556E-1,1.69764E-1,2.8474578E-1,5.3359266E-2,1.9030116E-1,3.5353908E-1,5.092043E-1,1.841099E-1,3.3926287E-1,-4.4578865E-2,7.022109E-2,2.8836241E-2,1.3169397E-1,1.4835854E-1,5.5453867E-2,2.7285945E-1,1.5204185E-1,3.0934927E-1,1.6729887E-1,7.029544E-2,1.680484E-1,4.148794E-1,2.6587686E-1,1.689193E-1,2.6511547E-1,2.791453E-1,1.7508265E-1,4.5159054E-1,3.138748E-1,3.7720013E-1,5.486354E-1,2.705413E-1,3.7271172E-1,3.8113734E-1,6.617369E-1,2.6619124E-1,3.7437436E-1,6.898326E-1,4.9509713E-1,3.7080806E-1,4.632859E-1,4.811643E-1,3.72442E-1,4.7406965E-1,5.832733E-1,6.2675023E-1,7.625386E-1,4.8742205E-1,5.7329494E-1],"split_indices":[0,26,0,12,13,26,26,4,13,17,0,0,0,0,17,0,0,21,0,21,21,21,21,13,13,17,13,13,13,0,13,25,25,13,21,19,21,21,17,0,21,20,21,17,13,21,18,21,13,21,13,13,13,17,21,2,13,16,13,13,21,12,0,0,0,0,0,0,0,0,0,0,0,0,0,0,0,0,0,0,0,0,0,0,0,0,0,0,0,0,0,0,0,0,0,0,0,0,0,0,0,0,0,0,0,0,0,0,0,0,0,0,0,0,0,0,0,0,0,0,0,0,0,0,0,0,0],"split_type":[0,0,0,0,0,0,0,0,0,0,0,0,0,0,0,0,0,0,0,0,0,0,0,0,0,0,0,0,0,0,0,0,0,0,0,0,0,0,0,0,0,0,0,0,0,0,0,0,0,0,0,0,0,0,0,0,0,0,0,0,0,0,0,0,0,0,0,0,0,0,0,0,0,0,0,0,0,0,0,0,0,0,0,0,0,0,0,0,0,0,0,0,0,0,0,0,0,0,0,0,0,0,0,0,0,0,0,0,0,0,0,0,0,0,0,0,0,0,0,0,0,0,0,0,0,0,0],"sum_hessian":[8E4,5.6069E4,2.3931E4,3.8783E4,1.7286E4,1.4392E4,9.539E3,3.6517E4,2.266E3,2.65E3,1.4636E4,9.983E3,4.409E3,6.678E3,2.861E3,3.441E4,2.107E3,1.141E3,1.125E3,1.956E3,6.94E2,1.151E4,3.126E3,5.52E3,4.463E3,2.458E3,1.951E3,3.921E3,2.757E3,2.527E3,3.34E2,2.6897E4,7.513E3,1.693E3,4.14E2,2.24E2,9.17E2,8.79E2,2.46E2,6.23E2,1.333E3,2.05E2,4.89E2,9.601E3,1.909E3,2.543E3,5.83E2,5.98E2,4.922E3,4.71E2,3.992E3,2.254E3,2.04E2,3.03E2,1.648E3,4.15E2,3.506E3,2.93E2,2.464E3,1.456E3,1.071E3,1.09E2,2.25E2,2.5469E4,1.428E3,7.076E3,4.37E2,1.67E2,1.526E3,7.5E1,3.39E2,3E1,1.94E2,8.22E2,9.5E1,1.13E2,7.66E2,2.38E2,8E0,4.98E2,1.25E2,1.187E3,1.46E2,1.74E2,3.1E1,4.19E2,7E1,8.771E3,8.3E2,1.295E3,6.14E2,3.06E2,2.237E3,8.8E1,4.95E2,1.04E2,4.94E2,4.388E3,5.34E2,9.2E1,3.79E2,3.581E3,4.11E2,3.23E2,1.931E3,8.4E1,1.2E2,2.2E2,8.3E1,1.365E3,2.83E2,3.95E2,2E1,3.118E3,3.88E2,1.9E1,2.74E2,2.153E3,3.11E2,2.08E2,1.248E3,9.27E2,1.44E2,5.1E1,5.8E1,1.28E2,9.7E1],"tree_param":{"num_deleted":"0","num_feature":"27","num_nodes":"127","size_leaf_vector":"1"}},{"base_weights":[2.1040118E-4,-9.627482E-1,2.2563148E0,-1.4955438E0,2.326535E-1,1.5495514E0,3.3223722E0,-1.6143073E0,4.1821724E-1,1.3300194E0,3.388671E-2,1.2330325E0,2.2657814E0,3.0107815E0,4.0483656E0,-1.7193408E0,1.010268E-1,8.5890615E-1,-2.9105097E-2,9.993218E-1,2.4026551E0,-1.6755894E-1,7.754303E-1,8.375765E-1,1.7218496E0,1.8490528E0,2.7895875E0,2.6180682E0,3.5681458E0,5.110133E0,3.8502455E0,-1.9149914E0,-1.0187383E0,-7.327368E-2,8.1226534E-1,1.812754E0,6.241843E-1,-2.5110865E-1,7.619566E-1,1.7884415E0,6.358349E-1,3.3889518E0,1.9630575E0,-3.1183124E-1,5.578181E-1,6.0026354E-1,1.5371578E0,7.561569E-1,2.056915E0,1.6334621E0,3.0996134E0,1.6915135E0,3.1864657E0,2.625248E0,4.1050873E0,3.8339522E0,2.5192053E0,4.5942864E0,3.4443107E0,4.675864E0,6.2678175E0,3.4473927E0,4.375474E0,-1.9963299E-1,-4.6390254E-2,-1.104062E-1,3.6220804E-2,-1.50646465E-2,8.6656384E-2,1.5875946E-1,6.365674E-2,3.1451818E-1,1.5916361E-1,4.9293716E-2,1.9046071E-1,5.927491E-2,-3.7242956E-2,6.426523E-2,3.8454863E-1,1.6054136E-1,2.9624662E-1,4.3302186E-2,1.4455295E-1,4.601577E-1,3.1159607E-1,1.6863899E-1,2.973209E-1,5.3232264E-2,-4.2010337E-2,2.5954843E-2,1.18546E-1,5.060807E-2,1.5547436E-1,1.22713886E-1,2.1262585E-1,6.668344E-2,1.5848374E-1,2.78844E-1,1.8433861E-1,2.61437E-1,1.5621388E-1,4.2628726E-1,2.876836E-1,2.4740468E-1,1.5629527E-1,3.9570475E-1,2.6817825E-1,3.557172E-1,2.4828891E-1,5.003607E-1,3.5980374E-1,3.669195E-1,5.899431E-1,2.4239342E-1,3.4709165E-1,4.4760272E-1,6.639759E-1,3.3411014E-1,4.200928E-1,5.525499E-1,4.332799E-1,5.57929E-1,6.8310195E-1,3.2994172E-1,4.1910395E-1,4.2231083E-1,5.354488E-1],"categories":[],"categories_nodes":[],"categories_segments":[],"categories_sizes":[],"default_left":[0,0,0,0,0,0,0,0,0,0,0,0,0,0,0,0,0,0,0,0,0,0,0,0,0,0,0,0,0,0,0,0,0,0,0,0,0,0,0,0,0,0,0,0,0,0,0,0,0,0,0,0,0,0,0,0,0,0,0,0,0,0,0,0,0,0,0,0,0,0,0,0,0,0,0,0,0,0,0,0,0,0,0,0,0,0,0,0,0,0,0,0,0,0,0,0,0,0,0,0,0,0,0,0,0,0,0,0,0,0,0,0,0,0,0,0,0,0,0,0,0,0,0,0,0,0,0],"id":1,"left_children":[1,3,5,7,9,11,13,15,17,19,21,23,25,27,29,31,33,35,37,39,41,43,45,47,49,51,53,55,57,59,61,63,65,67,69,71,73,75,77,79,81,83,85,87,89,91,93,95,97,99,101,103,105,107,109,111,113,115,117,119,121,123,125,-1,-1,-1,-1,-1,-1,-1,-1,-1,-1,-1,-1,-1,-1,-1,-1,-1,-1,-1,-1,-1,-1,-1,-1,-1,-1,-1,-1,-1,-1,-1,-1,-1,-1,-1,-1,-1,-1,-1,-1,-1,-1,-1,-1,-1,-1,-1,-1,-1,-1,-1,-1,-1,-1,-1,-1,-1,-1,-1,-1,-1,-1,-1,-1],"loss_changes":[1.7380716E5,3.57116E4,1.8026422E4,8.8156875E3,3.770593E3,3.2601016E3,2.1458828E3,6.5795312E3,4.4691873E2,9.3795703E2,2.1866155E3,1.9285215E3,9.5747656E2,1.4525898E3,5.823711E2,4.714875E3,2.6138666E2,2.5454962E2,1.9793776E2,5.805635E2,2.6389697E2,1.204821E3,4.163109E2,5.4655884E2,5.385508E2,5.1270996E2,4.1122363E2,4.617871E2,3.3463672E2,1.954209E2,4.961172E2,3.1738281E3,8.857544E2,1.23314575E2,5.5522217E1,6.1284363E1,1.5333273E2,9.031304E1,8.839462E1,1.32552E2,2.2763507E2,4.888965E1,1.1627869E2,8.778306E2,3.5725677E2,2.2790771E2,1.04048096E2,3.821438E2,4.874939E1,2.8954395E2,5.718799E1,2.1766113E2,8.972412E1,2.2174414E2,7.994946E1,7.80625E1,3.2072266E2,4.139746E1,1.7845703E2,7.195557E1,8.033691E0,1.3714844E2,1.3326758E2,0E0,0E0,0E0,0E0,0E0,0E0,0E0,0E0,0E0,0E0,0E0,0E0,0E0,0E0,0E0,0E0,0E0,0E0,0E0,0E0,0E0,0E0,0E0,0E0,0E0,0E0,0E0,0E0,0E0,0E0,0E0,0E0,0E0,0E0,0E0,0E0,0E0,0E0,0E0,0E0,0E0,0E0,0E0,0E0,0E0,0E0,0E0,0E0,0E0,0E0,0E0,0E0,0E0,0E0,0E0,0E0,0E0,0E0,0E0,0E0,0E0,0E0,0E0,0E0],"parents":[2147483647,0,0,1,1,2,2,3,3,4,4,5,5,6,6,7,7,8,8,9,9,10,10,11,11,12,12,13,13,14,14,15,15,16,16,17,17,18,18,19,19,20,20,21,21,22,22,23,23,24,24,25,25,26,26,27,27,28,28,29,29,30,30,31,31,32,32,33,33,34,34,35,35,36,36,37,37,38,38,39,39,40,40,41,41,42,42,43,43,44,44,45,45,46,46,47,47,48,48,49,49,50,50,51,51,52,52,53,53,54,54,55,55,56,56,57,57,58,58,59,59,60,60,61,61,62,62],"right_children":[2,4,6,8,10,12,14,16,18,20,22,24,26,28,30,32,34,36,38,40,42,44,46,48,50,52,54,56,58,60,62,64,66,68,70,72,74,76,78,80,82,84,86,88,90,92,94,96,98,100,102,104,106,108,110,112,114,116,118,120,122,124,126,-1,-1,-1,-1,-1,-1,-1,-1,-1,-1,-1,-1,-1,-1,-1,-1,-1,-1,-1,-1,-1,-1,-1,-1,-1,-1,-1,-1,-1,-1,-1,-1,-1,-1,-1,-1,-1,-1,-1,-1,-1,-1,-1,-1,-1,-1,-1,-1,-1,-1,-1,-1,-1,-1,-1,-1,-1,-1,-1,-1,-1,-1,-1,-1],"split_conditions":[2E0,1E0,4E0,1E0,9.7E0,1E0,1E0,1E0,9.7E0,3E1,1E0,3E0,3E0,5E0,9.7E0,1E0,1E0,5.8333335E0,1E0,5.8333335E0,5.8333335E0,7.2E0,7.133333E0,1E0,1E0,2.8E1,2.8E1,5.8333335E0,9.7E0,2.8E1,5E0,1E0,1E0,3E1,5.733333E0,2.7258926E1,7.133333E0,1.0796415E2,3E1,1.3296787E0,1E0,5.1E0,7.133333E0,5.9E0,1.44E1,2.8E1,1.44E1,1.63E1,6.15E0,5.8333335E0,5.5333333E0,9.7E0,9.7E0,5.8333335E0,9.7E0,1.75E1,1.65E1,3.1E1,1.44E1,5.65E0,1E0,7.133333E0,7.4E0,-1.9963299E-1,-4.6390254E-2,-1.104062E-1,3.6220804E-2,-1.50646465E-2,8.6656384E-2,1.5875946E-1,6.365674E-2,3.1451818E-1,1.5916361E-1,4.9293716E-2,1.9046071E-1,5.927491E-2,-3.7242956E-2,6.426523E-2,3.8454863E-1,1.6054136E-1,2.9624662E-1,4.3302186E-2,1.4455295E-1,4.601577E-1,3.1159607E-1,1.6863899E-1,2.973209E-1,5.3232264E-2,-4.2010337E-2,2.5954843E-2,1.18546E-1,5.060807E-2,1.5547436E-1,1.22713886E-1,2.1262585E-1,6.668344E-2,1.5848374E-1,2.78844E-1,1.8433861E-1,2.61437E-1,1.5621388E-1,4.2628726E-1,2.876836E-1,2.4740468E-1,1.5629527E-1,3.9570475E-1,2.6817825E-1,3.557172E-1,2.4828891E-1,5.003607E-1,3.5980374E-1,3.669195E-1,5.899431E-1,2.4239342E-1,3.4709165E-1,4.4760272E-1,6.639759E-1,3.3411014E-1,4.200928E-1,5.525499E-1,4.332799E-1,5.57929E-1,6.8310195E-1,3.2994172E-1,4.1910395E-1,4.2231083E-1,5.354488E-1],"split_indices":[0,26,0,12,13,26,26,4,13,17,0,0,0,0,13,0,0,21,0,21,21,21,21,12,12,17,17,21,13,17,0,25,25,17,21,19,21,16,17,18,0,14,21,21,13,17,13,14,21,21,21,13,13,21,13,14,14,17,13,21,12,21,21,0,0,0,0,0,0,0,0,0,0,0,0,0,0,0,0,0,0,0,0,0,0,0,0,0,0,0,0,0,0,0,0,0,0,0,0,0,0,0,0,0,0,0,0,0,0,0,0,0,0,0,0,0,0,0,0,0,0,0,0,0,0,0,0],"split_type":[0,0,0,0,0,0,0,0,0,0,0,0,0,0,0,0,0,0,0,0,0,0,0,0,0,0,0,0,0,0,0,0,0,0,0,0,0,0,0,0,0,0,0,0,0,0,0,0,0,0,0,0,0,0,0,0,0,0,0,0,0,0,0,0,0,0,0,0,0,0,0,0,0,0,0,0,0,0,0,0,0,0,0,0,0,0,0,0,0,0,0,0,0,0,0,0,0,0,0,0,0,0,0,0,0,0,0,0,0,0,0,0,0,0,0,0,0,0,0,0,0,0,0,0,0,0,0],"sum_hessian":[8E4,5.6069E4,2.3931E4,3.8783E4,1.7286E4,1.4392E4,9.539E3,3.6517E4,2.266E3,2.65E3,1.4636E4,9.983E3,4.409E3,6.678E3,2.861E3,3.441E4,2.107E3,1.141E3,1.125E3,2.027E3,6.23E2,1.151E4,3.126E3,5.52E3,4.463E3,2.458E3,1.951E3,3.921E3,2.757E3,4.46E2,2.415E3,2.6897E4,7.513E3,1.693E3,4.14E2,2.24E2,9.17E2,8.79E2,2.46E2,6.38E2,1.389E3,1.9E2,4.33E2,9.601E3,1.909E3,2.543E3,5.83E2,5.176E3,3.44E2,4.196E3,2.67E2,2.201E3,2.57E2,1.737E3,2.14E2,2.92E2,3.629E3,2.93E2,2.464E3,3.28E2,1.18E2,1.371E3,1.044E3,2.5469E4,1.428E3,7.076E3,4.37E2,1.565E3,1.28E2,7.5E1,3.39E2,3E1,1.94E2,8.33E2,8.4E1,1.1E2,7.69E2,2.38E2,8E0,5.54E2,8.4E1,1.112E3,2.77E2,3.2E1,1.58E2,3.42E2,9.1E1,1.091E3,8.51E3,1.295E3,6.14E2,2.316E3,2.27E2,3.84E2,1.99E2,4.674E3,5.02E2,7.5E1,2.69E2,2.82E2,3.914E3,4E1,2.27E2,3.08E2,1.893E3,9.9E1,1.58E2,2.27E2,1.51E3,7.4E1,1.4E2,2.73E2,1.9E1,3.302E3,3.27E2,2.8E2,1.3E1,2.173E3,2.91E2,9E1,2.38E2,5.8E1,6E1,1.148E3,2.23E2,9.08E2,1.36E2],"tree_param":{"num_deleted":"0","num_feature":"27","num_nodes":"127","size_leaf_vector":"1"}},{"base_weights":[3.8226417E-4,-8.664068E-1,2.031172E0,-1.3459597E0,2.0953734E-1,1.3948987E0,2.990905E0,-1.4528773E0,3.76918E-1,1.1977274E0,3.054563E-2,1.1099117E0,2.0397773E0,2.7102141E0,3.6449037E0,-1.5474161E0,9.106362E-2,7.7364045E-1,-2.5776457E-2,8.749585E-1,2.1048658E0,-1.5078953E-1,6.9806033E-1,7.539437E-1,1.5499183E0,1.6645817E0,2.5113788E0,2.3566556E0,3.2120075E0,3.4874637E0,4.822107E0,-1.7235014E0,-9.1687435E-1,-6.5904E-2,7.3157465E-1,1.6979036E0,5.744111E-1,-2.2597277E-1,6.8757796E-1,1.5618929E0,5.5297804E-1,3.0956352E0,1.6840426E0,-2.7424905E-1,5.526368E-1,5.4031813E-1,1.384016E0,1.58881E0,6.451166E-1,1.4702154E0,2.7923162E0,1.5390621E0,3.037177E0,3.5017776E0,2.3272715E0,3.2839174E0,2.245992E0,4.3695197E0,3.1188202E0,3.134487E0,3.9639559E0,5.741292E0,4.3533792E0,-1.8327358E-1,-8.0940865E-2,-9.9367134E-2,3.260697E-2,6.0875814E-2,-1.728457E-2,1.755549E-1,6.0540106E-2,1.5150002E-1,3.2022157E-1,3.7082486E-2,1.377161E-1,5.6000806E-2,-3.4249928E-2,5.786559E-2,3.503665E-1,2.5746685E-1,1.3683061E-1,4.1647293E-2,1.6524005E-1,2.780994E-1,4.1008908E-1,2.8926358E-1,1.4989512E-1,-3.805611E-2,7.274116E-2,3.9851557E-2,1.5387563E-1,1.2722868E-1,4.3966815E-2,2.3111992E-1,1.2148561E-1,2.4019602E-1,1.3710763E-1,5.5086315E-2,1.4106236E-1,1.3876095E-1,2.2257403E-1,3.7105078E-1,2.559421E-1,1.4139265E-1,2.2596097E-1,3.6785784E-1,2.5615054E-1,3.1172597E-1,4.471738E-1,2.1652274E-1,3.0984864E-1,3.148785E-1,5.675754E-1,2.1405606E-1,3.085566E-1,5.7689196E-1,4.2021784E-1,3.0443355E-1,4.127217E-1,3.8730407E-1,3.0083925E-1,3.8266438E-1,4.680049E-1,6.684883E-1,5.303885E-1,5.3522724E-1,4.1967615E-1],"categories":[],"categories_nodes":[],"categories_segments":[],"categories_sizes":[],"default_left":[0,0,0,0,0,0,0,0,0,0,0,0,0,0,0,0,0,0,0,0,0,0,0,0,0,0,0,0,0,0,0,0,0,0,0,0,0,0,0,0,0,0,0,0,0,0,0,0,0,0,0,0,0,0,0,0,0,0,0,0,0,0,0,0,0,0,0,0,0,0,0,0,0,0,0,0,0,0,0,0,0,0,0,0,0,0,0,0,0,0,0,0,0,0,0,0,0,0,0,0,0,0,0,0,0,0,0,0,0,0,0,0,0,0,0,0,0,0,0,0,0,0,0,0,0,0,0],"id":2,"left_children":[1,3,5,7,9,11,13,15,17,19,21,23,25,27,29,31,33,35,37,39,41,43,45,47,49,51,53,55,57,59,61,63,65,67,69,71,73,75,77,79,81,83,85,87,89,91,93,95,97,99,101,103,105,107,109,111,113,115,117,119,121,123,125,-1,-1,-1,-1,-1,-1,-1,-1,-1,-1,-1,-1,-1,-1,-1,-1,-1,-1,-1,-1,-1,-1,-1,-1,-1,-1,-1,-1,-1,-1,-1,-1,-1,-1,-1,-1,-1,-1,-1,-1,-1,-1,-1,-1,-1,-1,-1,-1,-1,-1,-1,-1,-1,-1,-1,-1,-1,-1,-1,-1,-1,-1,-1,-1],"loss_changes":[1.4082483E5,2.8930836E4,1.4609961E4,7.144789E3,3.0576506E3,2.6429102E3,1.7413984E3,5.3303984E3,3.6219116E2,7.7436084E2,1.7718247E3,1.5626084E3,7.761367E2,1.1773711E3,5.13625E2,3.819039E3,2.1198549E2,2.0931299E2,1.6096048E2,4.3198438E2,2.8455933E2,9.9982056E2,3.376068E2,5.0059106E2,4.3793164E2,4.1898096E2,3.4777734E2,3.9507812E2,2.8386523E2,4.1276172E2,1.1933984E2,2.6842969E3,7.1756885E2,1.22326515E2,5.255458E1,5.0727722E1,1.5327585E2,8.0788895E1,7.3735855E1,1.1881848E2,1.9951425E2,5.3752197E1,1.052771E2,1.0431194E3,2.6064368E2,1.8686383E2,8.8787964E1,1.0931079E2,3.5175623E2,2.588506E2,4.781299E1,2.0012988E2,5.312207E1,9.944238E1,1.9936816E2,1.1658594E2,3.0382422E2,2.3295898E1,1.7941602E2,1.2403516E2,8.75E1,9.944824E0,1.2894043E1,0E0,0E0,0E0,0E0,0E0,0E0,0E0,0E0,0E0,0E0,0E0,0E0,0E0,0E0,0E0,0E0,0E0,0E0,0E0,0E0,0E0,0E0,0E0,0E0,0E0,0E0,0E0,0E0,0E0,0E0,0E0,0E0,0E0,0E0,0E0,0E0,0E0,0E0,0E0,0E0,0E0,0E0,0E0,0E0,0E0,0E0,0E0,0E0,0E0,0E0,0E0,0E0,0E0,0E0,0E0,0E0,0E0,0E0,0E0,0E0,0E0,0E0,0E0,0E0],"parents":[2147483647,0,0,1,1,2,2,3,3,4,4,5,5,6,6,7,7,8,8,9,9,10,10,11,11,12,12,13,13,14,14,15,15,16,16,17,17,18,18,19,19,20,20,21,21,22,22,23,23,24,24,25,25,26,26,27,27,28,28,29,29,30,30,31,31,32,32,33,33,34,34,35,35,36,36,37,37,38,38,39,39,40,40,41,41,42,42,43,43,44,44,45,45,46,46,47,47,48,48,49,49,50,50,51,51,52,52,53,53,54,54,55,55,56,56,57,57,58,58,59,59,60,60,61,61,62,62],"right_children":[2,4,6,8,10,12,14,16,18,20,22,24,26,28,30,32,34,36,38,40,42,44,46,48,50,52,54,56,58,60,62,64,66,68,70,72,74,76,78,80,82,84,86,88,90,92,94,96,98,100,102,104,106,108,110,112,114,116,118,120,122,124,126,-1,-1,-1,-1,-1,-1,-1,-1,-1,-1,-1,-1,-1,-1,-1,-1,-1,-1,-1,-1,-1,-1,-1,-1,-1,-1,-1,-1,-1,-1,-1,-1,-1,-1,-1,-1,-1,-1,-1,-1,-1,-1,-1,-1,-1,-1,-1,-1,-1,-1,-1,-1,-1,-1,-1,-1,-1,-1,-1,-1,-1,-1,-1,-1],"split_conditions":[2E0,1E0,4E0,1E0,9.7E0,1E0,1E0,1E0,9.7E0,2.8E1,1E0,3E0,3E0,5E0,2.8E1,1E0,1E0,5.766667E0,1E0,5.8333335E0,5.8333335E0,1.44E1,7.133333E0,9.8E0,1E0,3.1E1,9.7E0,9.7E0,5.8333335E0,5E0,9.45E0,1.44E1,1E0,1.0796415E2,9.6E0,3.2033802E1,1E0,5.8333335E0,3E1,4.1E0,7.133333E0,1.712724E2,8.6520004E-1,2.8E1,3.210803E1,5.8333335E0,8.730135E-1,6.0333333E0,1.44E1,1.44E1,5.8333335E0,7.2E0,9.7E0,2.6E1,7.133333E0,1E0,1.44E1,8.2653356E-1,7.133333E0,9.7E0,7.133333E0,6.3E0,1.342114E2,-1.8327358E-1,-8.0940865E-2,-9.9367134E-2,3.260697E-2,6.0875814E-2,-1.728457E-2,1.755549E-1,6.0540106E-2,1.5150002E-1,3.2022157E-1,3.7082486E-2,1.377161E-1,5.6000806E-2,-3.4249928E-2,5.786559E-2,3.503665E-1,2.5746685E-1,1.3683061E-1,4.1647293E-2,1.6524005E-1,2.780994E-1,4.1008908E-1,2.8926358E-1,1.4989512E-1,-3.805611E-2,7.274116E-2,3.9851557E-2,1.5387563E-1,1.2722868E-1,4.3966815E-2,2.3111992E-1,1.2148561E-1,2.4019602E-1,1.3710763E-1,5.5086315E-2,1.4106236E-1,1.3876095E-1,2.2257403E-1,3.7105078E-1,2.559421E-1,1.4139265E-1,2.2596097E-1,3.6785784E-1,2.5615054E-1,3.1172597E-1,4.471738E-1,2.1652274E-1,3.0984864E-1,3.148785E-1,5.675754E-1,2.1405606E-1,3.085566E-1,5.7689196E-1,4.2021784E-1,3.0443355E-1,4.127217E-1,3.8730407E-1,3.0083925E-1,3.8266438E-1,4.680049E-1,6.684883E-1,5.303885E-1,5.3522724E-1,4.1967615E-1],"split_indices":[0,26,0,12,13,26,26,4,13,17,0,0,0,0,17,0,0,21,0,21,21,13,21,13,12,17,13,13,21,0,13,13,25,16,13,19,0,21,17,14,21,16,18,17,19,21,18,21,13,13,21,21,13,17,21,2,13,18,21,13,21,14,15,0,0,0,0,0,0,0,0,0,0,0,0,0,0,0,0,0,0,0,0,0,0,0,0,0,0,0,0,0,0,0,0,0,0,0,0,0,0,0,0,0,0,0,0,0,0,0,0,0,0,0,0,0,0,0,0,0,0,0,0,0,0,0,0],"split_type":[0,0,0,0,0,0,0,0,0,0,0,0,0,0,0,0,0,0,0,0,0,0,0,0,0,0,0,0,0,0,0,0,0,0,0,0,0,0,0,0,0,0,0,0,0,0,0,0,0,0,0,0,0,0,0,0,0,0,0,0,0,0,0,0,0,0,0,0,0,0,0,0,0,0,0,0,0,0,0,0,0,0,0,0,0,0,0,0,0,0,0,0,0,0,0,0,0,0,0,0,0,0,0,0,0,0,0,0,0,0,0,0,0,0,0,0,0,0,0,0,0,0,0,0,0,0,0],"sum_hessian":[8E4,5.6069E4,2.3931E4,3.8783E4,1.7286E4,1.4392E4,9.539E3,3.6517E4,2.266E3,2.65E3,1.4636E4,9.983E3,4.409E3,6.678E3,2.861E3,3.441E4,2.107E3,1.141E3,1.125E3,1.956E3,6.94E2,1.151E4,3.126E3,5.52E3,4.463E3,2.458E3,1.951E3,3.921E3,2.757E3,2.527E3,3.34E2,2.6897E4,7.513E3,1.693E3,4.14E2,2.01E2,9.4E2,8.79E2,2.46E2,6.23E2,1.333E3,2.05E2,4.89E2,9.792E3,1.718E3,2.543E3,5.83E2,6.35E2,4.885E3,4.196E3,2.67E2,2.254E3,2.04E2,3.03E2,1.648E3,4.15E2,3.506E3,2.02E2,2.555E3,1.456E3,1.071E3,1.09E2,2.25E2,2.4025E4,2.872E3,7.076E3,4.37E2,2.31E2,1.462E3,4.4E1,3.7E2,1.81E2,2E1,7.51E2,1.89E2,1.13E2,7.66E2,2.38E2,8E0,9.8E1,5.25E2,1.187E3,1.46E2,1.59E2,4.6E1,6.3E1,4.26E2,8.853E3,9.39E2,1.487E3,2.31E2,3.06E2,2.237E3,8.8E1,4.95E2,1.32E2,5.03E2,4.351E3,5.34E2,3.785E3,4.11E2,5.1E1,2.16E2,1.923E3,3.31E2,8.4E1,1.2E2,2.2E2,8.3E1,1.365E3,2.83E2,3.95E2,2E1,3.118E3,3.88E2,1.8E1,1.84E2,2.383E3,1.72E2,2.08E2,1.248E3,9.04E2,1.67E2,3E1,7.9E1,2.6E1,1.99E2],"tree_param":{"num_deleted":"0","num_feature":"27","num_nodes":"127","size_leaf_vector":"1"}},{"base_weights":[5.209867E-4,-7.797036E-1,1.8284999E0,-1.2113373E0,1.8872708E-1,1.2556754E0,2.6925287E0,-1.307591E0,3.39701E-1,1.0786066E0,2.7542453E-2,9.9907696E-1,1.8363158E0,2.4396598E0,3.2817035E0,-1.3926841E0,8.208993E-2,6.968423E-1,-2.281688E-2,7.8776973E-1,1.8960012E0,-1.3569075E-1,6.2842184E-1,6.786533E-1,1.3951477E0,1.7003955E0,2.966726E0,2.1213484E0,2.8914285E0,3.1500044E0,4.4388757E0,-1.4658592E0,-1.15649566E-1,7.296583E-1,-4.680775E-2,1.4772193E0,5.048144E-1,-2.033507E-1,6.2047285E-1,1.4063352E0,4.978352E-1,2.7894123E0,1.5165344E0,-2.6234353E-1,5.0109226E-1,4.9131042E-1,1.3670897E0,6.078952E-1,1.7384675E0,2.2717607E0,1.2911767E0,1.3687737E0,2.119573E0,3.6120281E0,2.581277E0,3.1941736E0,2.0341694E0,3.8017719E0,2.7816792E0,2.831121E0,3.5785213E0,5.2522774E0,4.0156684E0,-1.6246079E-1,-8.943183E-2,8.4427774E-2,-2.173743E-2,1.572681E-1,5.0181236E-2,-1.769057E-2,6.128157E-2,2.6248392E-1,1.2591885E-1,3.7769724E-2,1.5893205E-1,5.5575382E-2,-3.1251594E-2,5.210324E-2,3.192228E-1,1.2304582E-1,2.5071275E-1,3.1033857E-2,1.2390009E-1,4.0183386E-1,2.5231227E-1,1.328631E-1,2.606716E-1,5.0267972E-2,-3.594557E-2,3.4264702E-2,1.4663935E-1,3.9088666E-2,1.3746314E-1,2.50684E-1,1.1957283E-1,5.425278E-2,1.6430639E-1,1.4954092E-1,2.2873294E-1,3.2231128E-1,2.0329514E-1,1.2259678E-1,2.3430069E-1,2.0804869E-1,1.2519374E-1,2.9558367E-1,1.9919835E-1,5.6767887E-1,3.3522975E-1,3.8587707E-1,2.4191086E-1,3.0842972E-1,5.99525E-1,1.9501384E-1,2.8494942E-1,5.534745E-1,3.6754355E-1,2.7121556E-1,3.740589E-1,3.6169472E-1,2.716067E-1,4.350505E-1,3.4578648E-1,7.11694E-1,4.9775776E-1,3.8539296E-1,4.8793054E-1],"categories":[],"categories_nodes":[],"categories_segments":[],"categories_sizes":[],"default_left":[0,0,0,0,0,0,0,0,0,0,0,0,0,0,0,0,0,0,0,0,0,0,0,0,0,0,0,0,0,0,0,0,0,0,0,0,0,0,0,0,0,0,0,0,0,0,0,0,0,0,0,0,0,0,0,0,0,0,0,0,0,0,0,0,0,0,0,0,0,0,0,0,0,0,0,0,0,0,0,0,0,0,0,0,0,0,0,0,0,0,0,0,0,0,0,0,0,0,0,0,0,0,0,0,0,0,0,0,0,0,0,0,0,0,0,0,0,0,0,0,0,0,0,0,0,0,0],"id":3,"left_children":[1,3,5,7,9,11,13,15,17,19,21,23,25,27,29,31,33,35,37,39,41,43,45,47,49,51,53,55,57,59,61,63,65,67,69,71,73,75,77,79,81,83,85,87,89,91,93,95,97,99,101,103,105,107,109,111,113,115,117,119,121,123,125,-1,-1,-1,-1,-1,-1,-1,-1,-1,-1,-1,-1,-1,-1,-1,-1,-1,-1,-1,-1,-1,-1,-1,-1,-1,-1,-1,-1,-1,-1,-1,-1,-1,-1,-1,-1,-1,-1,-1,-1,-1,-1,-1,-1,-1,-1,-1,-1,-1,-1,-1,-1,-1,-1,-1,-1,-1,-1,-1,-1,-1,-1,-1,-1],"loss_changes":[1.1410157E5,2.3437902E4,1.1841445E4,5.790629E3,2.4795298E3,2.1425996E3,1.4133047E3,4.318453E3,2.9352463E2,6.2872437E2,1.435733E3,1.2661279E3,6.725322E2,9.543281E2,4.2218164E2,3.2154297E3,1.7598904E2,1.7038782E2,1.3089479E2,3.5027527E2,2.3138843E2,9.2849744E2,3.160304E2,4.1296533E2,4.0392578E2,5.4465234E2,1.0807715E2,3.6031836E2,2.6497656E2,3.414629E2,7.873779E1,2.9514922E3,1.8239534E2,6.643858E1,1.5105814E2,5.299359E1,1.25954544E2,7.309739E1,6.1503685E1,1.17724E2,1.8499622E2,5.7275024E1,9.691235E1,7.1354266E2,2.9162708E2,2.3355884E2,9.250879E1,3.494171E2,4.2604492E1,1.0068213E2,2.7100195E2,1.8050049E2,1.7955469E2,7.428247E1,5.2608643E1,7.168628E1,2.4314453E2,4.402539E1,1.5418945E2,1.23987305E2,8.685742E1,1.3748291E1,8.433838E0,0E0,0E0,0E0,0E0,0E0,0E0,0E0,0E0,0E0,0E0,0E0,0E0,0E0,0E0,0E0,0E0,0E0,0E0,0E0,0E0,0E0,0E0,0E0,0E0,0E0,0E0,0E0,0E0,0E0,0E0,0E0,0E0,0E0,0E0,0E0,0E0,0E0,0E0,0E0,0E0,0E0,0E0,0E0,0E0,0E0,0E0,0E0,0E0,0E0,0E0,0E0,0E0,0E0,0E0,0E0,0E0,0E0,0E0,0E0,0E0,0E0,0E0,0E0,0E0],"parents":[2147483647,0,0,1,1,2,2,3,3,4,4,5,5,6,6,7,7,8,8,9,9,10,10,11,11,12,12,13,13,14,14,15,15,16,16,17,17,18,18,19,19,20,20,21,21,22,22,23,23,24,24,25,25,26,26,27,27,28,28,29,29,30,30,31,31,32,32,33,33,34,34,35,35,36,36,37,37,38,38,39,39,40,40,41,41,42,42,43,43,44,44,45,45,46,46,47,47,48,48,49,49,50,50,51,51,52,52,53,53,54,54,55,55,56,56,57,57,58,58,59,59,60,60,61,61,62,62],"right_children":[2,4,6,8,10,12,14,16,18,20,22,24,26,28,30,32,34,36,38,40,42,44,46,48,50,52,54,56,58,60,62,64,66,68,70,72,74,76,78,80,82,84,86,88,90,92,94,96,98,100,102,104,106,108,110,112,114,116,118,120,122,124,126,-1,-1,-1,-1,-1,-1,-1,-1,-1,-1,-1,-1,-1,-1,-1,-1,-1,-1,-1,-1,-1,-1,-1,-1,-1,-1,-1,-1,-1,-1,-1,-1,-1,-1,-1,-1,-1,-1,-1,-1,-1,-1,-1,-1,-1,-1,-1,-1,-1,-1,-1,-1,-1,-1,-1,-1,-1,-1,-1,-1,-1,-1,-1,-1],"split_conditions":[2E0,1E0,4E0,1E0,9.7E0,1E0,1E0,1E0,9.7E0,2.8E1,1E0,3E0,2.8E1,5E0,3E1,1E0,5.8333335E0,5.8333335E0,1E0,5.8333335E0,5.8333335E0,7.2E0,1.44E1,1E0,9.7E0,3E0,9.7E0,5.8333335E0,9.7E0,5E0,9.45E0,1E0,5.8333335E0,9.6E0,7.133333E0,1.0680768E2,7.0333333E0,1.0796415E2,3E1,1.4144887E2,1E0,1.17716675E2,7.35E0,5.8333335E0,3.210803E1,2.8E1,1.0796415E2,1E0,1.4E1,5.733333E0,1E0,9.7E0,5.8333335E0,1.0955782E2,2.7381699E1,3.2E1,1.63E1,9.38913E1,1E0,2.750155E1,9.8E0,5.4E1,3.218601E1,-1.6246079E-1,-8.943183E-2,8.4427774E-2,-2.173743E-2,1.572681E-1,5.0181236E-2,-1.769057E-2,6.128157E-2,2.6248392E-1,1.2591885E-1,3.7769724E-2,1.5893205E-1,5.5575382E-2,-3.1251594E-2,5.210324E-2,3.192228E-1,1.2304582E-1,2.5071275E-1,3.1033857E-2,1.2390009E-1,4.0183386E-1,2.5231227E-1,1.328631E-1,2.606716E-1,5.0267972E-2,-3.594557E-2,3.4264702E-2,1.4663935E-1,3.9088666E-2,1.3746314E-1,2.50684E-1,1.1957283E-1,5.425278E-2,1.6430639E-1,1.4954092E-1,2.2873294E-1,3.2231128E-1,2.0329514E-1,1.2259678E-1,2.3430069E-1,2.0804869E-1,1.2519374E-1,2.9558367E-1,1.9919835E-1,5.6767887E-1,3.3522975E-1,3.8587707E-1,2.4191086E-1,3.0842972E-1,5.99525E-1,1.9501384E-1,2.8494942E-1,5.534745E-1,3.6754355E-1,2.7121556E-1,3.740589E-1,3.6169472E-1,2.716067E-1,4.350505E-1,3.4578648E-1,7.11694E-1,4.9775776E-1,3.8539296E-1,4.8793054E-1],"split_indices":[0,26,0,12,13,26,26,4,13,17,0,0,17,0,17,25,21,21,0,21,21,21,13,12,13,0,13,21,13,0,13,0,21,13,21,16,21,16,17,15,0,16,21,21,19,17,16,4,17,21,4,13,21,16,19,17,14,16,4,19,13,20,19,0,0,0,0,0,0,0,0,0,0,0,0,0,0,0,0,0,0,0,0,0,0,0,0,0,0,0,0,0,0,0,0,0,0,0,0,0,0,0,0,0,0,0,0,0,0,0,0,0,0,0,0,0,0,0,0,0,0,0,0,0,0,0,0],"split_type":[0,0,0,0,0,0,0,0,0,0,0,0,0,0,0,0,0,0,0,0,0,0,0,0,0,0,0,0,0,0,0,0,0,0,0,0,0,0,0,0,0,0,0,0,0,0,0,0,0,0,0,0,0,0,0,0,0,0,0,0,0,0,0,0,0,0,0,0,0,0,0,0,0,0,0,0,0,0,0,0,0,0,0,0,0,0,0,0,0,0,0,0,0,0,0,0,0,0,0,0,0,0,0,0,0,0,0,0,0,0,0,0,0,0,0,0,0,0,0,0,0,0,0,0,0,0,0],"sum_hessian":[8E4,5.6069E4,2.3931E4,3.8783E4,1.7286E4,1.4392E4,9.539E3,3.6517E4,2.266E3,2.65E3,1.4636E4,9.983E3,4.409E3,6.678E3,2.861E3,3.441E4,2.107E3,1.141E3,1.125E3,1.956E3,6.94E2,1.151E4,3.126E3,5.52E3,4.463E3,3.938E3,4.71E2,3.921E3,2.757E3,2.572E3,2.89E2,3.2545E4,1.865E3,3.49E2,1.758E3,2.24E2,9.17E2,8.79E2,2.46E2,6.23E2,1.333E3,2.05E2,4.89E2,9.601E3,1.909E3,2.638E3,4.88E2,5.176E3,3.44E2,4.71E2,3.992E3,2.201E3,1.737E3,1.73E2,2.98E2,2.92E2,3.629E3,2.93E2,2.464E3,1.479E3,1.093E3,9.5E1,1.94E2,2.5469E4,7.076E3,1.78E2,1.687E3,7.3E1,2.76E2,1.469E3,2.89E2,3.4E1,1.9E2,8.22E2,9.5E1,1.1E2,7.69E2,2.38E2,8E0,5.39E2,8.4E1,1.065E3,2.68E2,3.4E1,1.71E2,4.19E2,7E1,1.081E3,8.52E3,1.641E3,2.68E2,2.37E3,2.68E2,6.2E1,4.26E2,4.87E3,3.06E2,2.41E2,1.03E2,9.2E1,3.79E2,3.761E3,2.31E2,3.08E2,1.893E3,2.27E2,1.51E3,1.7E1,1.56E2,3.1E1,2.67E2,2.83E2,9E0,3.293E3,3.36E2,1.7E1,2.76E2,2.301E3,1.63E2,1.85E2,1.294E3,1.43E2,9.5E2,9E0,8.6E1,1.68E2,2.6E1],"tree_param":{"num_deleted":"0","num_feature":"27","num_nodes":"127","size_leaf_vector":"1"}},{"base_weights":[6.395303E-4,-7.0167327E-1,1.6460799E0,-1.0901767E0,1.6998853E-1,1.1303747E0,2.4239519E0,-6.891956E-2,-1.2119192E0,4.3489054E-2,1.1552088E0,8.993175E-1,1.6532191E0,2.196136E0,2.9547548E0,9.206154E-1,-2.8899094E-1,-1.2941805E0,-3.450868E-2,-1.0746441E-1,6.066034E-1,2.1063662E0,9.2464197E-1,6.108962E-1,1.2558306E0,1.5305662E0,2.6732965E0,1.9095672E0,2.6028538E0,3.7930577E0,2.7984319E0,2.2437239E0,7.350683E-1,-5.658899E-1,4.545471E-1,-1.4015563E0,-4.304988E-1,-1.3962397E-1,9.577062E-1,5.610766E-1,-1.98399E-1,1.428079E0,4.926652E-1,1.8608845E0,3.4498255E0,1.8496903E0,7.734063E-1,1.3068094E0,5.123812E-1,1.1867682E0,2.332694E0,1.2320478E0,1.9079005E0,4.356542E0,2.5409772E0,1.8389704E0,3.106443E0,3.621129E0,2.520963E0,3.357816E0,4.3802505E0,2.49994E0,3.1876495E0,1.901466E-1,3.7506068E-1,5.9060026E-2,2.3161061E-1,-6.482031E-2,1.5163493E-1,2.7743598E-2,1.1547905E-1,-1.488825E-1,-2.1707334E-2,-4.91755E-2,1.8483795E-1,-2.8927295E-2,4.571269E-2,7.5208835E-2,2.376792E-1,1.0573037E-1,2.9956087E-2,-3.3178274E-2,4.279252E-2,3.0937335E-1,1.1825406E-1,3.5181444E-2,1.19322084E-1,3.759343E-1,1.6122507E-1,2.802057E-1,3.9236227E-1,1.6443351E-1,3.017602E-1,6.339409E-2,1.7173515E-1,2.0125286E-1,1.118203E-1,4.2565566E-2,1.2091186E-1,1.12428345E-1,2.0842992E-1,2.1246064E-1,3.31667E-1,1.1196776E-1,1.9719948E-1,2.6615494E-1,1.7929171E-1,4.5906138E-2,4.4639927E-1,3.0911916E-1,2.2186454E-1,1.7547165E-1,2.6546887E-1,4.2250577E-1,2.845368E-1,4.6473318E-1,3.4163117E-1,2.430059E-1,3.342443E-1,4.6427798E-1,3.170839E-1,5.698753E-1,4.1021785E-1,2.3607838E-1,3.250223E-1,3.0519772E-1,3.9646468E-1],"categories":[],"categories_nodes":[],"categories_segments":[],"categories_sizes":[],"default_left":[0,0,0,0,0,0,0,0,0,0,0,0,0,0,0,0,0,0,0,0,0,0,0,0,0,0,0,0,0,0,0,0,0,0,0,0,0,0,0,0,0,0,0,0,0,0,0,0,0,0,0,0,0,0,0,0,0,0,0,0,0,0,0,0,0,0,0,0,0,0,0,0,0,0,0,0,0,0,0,0,0,0,0,0,0,0,0,0,0,0,0,0,0,0,0,0,0,0,0,0,0,0,0,0,0,0,0,0,0,0,0,0,0,0,0,0,0,0,0,0,0,0,0,0,0,0,0],"id":4,"left_children":[1,3,5,7,9,11,13,15,17,19,21,23,25,27,29,31,33,35,37,39,41,43,45,47,49,51,53,55,57,59,61,63,65,67,69,71,73,75,77,79,81,83,85,87,89,91,93,95,97,99,101,103,105,107,109,111,113,115,117,119,121,123,125,-1,-1,-1,-1,-1,-1,-1,-1,-1,-1,-1,-1,-1,-1,-1,-1,-1,-1,-1,-1,-1,-1,-1,-1,-1,-1,-1,-1,-1,-1,-1,-1,-1,-1,-1,-1,-1,-1,-1,-1,-1,-1,-1,-1,-1,-1,-1,-1,-1,-1,-1,-1,-1,-1,-1,-1,-1,-1,-1,-1,-1,-1,-1,-1],"loss_changes":[9.245142E4,1.8987928E4,9.597645E3,4.821949E3,2.1544258E3,1.7372871E3,1.1471328E3,9.000848E2,3.3562812E3,1.3024125E3,4.2942627E2,1.0258472E3,5.47667E2,7.734824E2,3.6443945E2,1.8296588E2,6.9635406E2,3.0031953E3,2.3626205E2,7.3467926E2,3.0245837E2,1.1989148E2,2.2031128E2,3.7783838E2,3.2922314E2,4.4134473E2,9.405664E1,3.256787E2,2.2085547E2,9.953174E1,2.727168E2,4.031665E1,1.4961081E2,4.2330212E2,1.1353081E2,2.9775078E3,5.010791E2,1.8302507E2,6.1530746E1,1.8746213E2,8.8877234E2,1.5748059E2,2.8040588E2,1.4781787E2,6.8066406E0,4.828192E1,1.784787E2,8.8792114E1,2.918214E2,2.3303271E2,4.782727E1,1.8088428E2,1.4583789E2,1.1770691E1,7.117627E1,2.500459E2,5.135132E1,2.6790771E1,1.8274805E2,4.798584E1,4.5184082E1,1.3557227E2,9.806152E1,0E0,0E0,0E0,0E0,0E0,0E0,0E0,0E0,0E0,0E0,0E0,0E0,0E0,0E0,0E0,0E0,0E0,0E0,0E0,0E0,0E0,0E0,0E0,0E0,0E0,0E0,0E0,0E0,0E0,0E0,0E0,0E0,0E0,0E0,0E0,0E0,0E0,0E0,0E0,0E0,0E0,0E0,0E0,0E0,0E0,0E0,0E0,0E0,0E0,0E0,0E0,0E0,0E0,0E0,0E0,0E0,0E0,0E0,0E0,0E0,0E0,0E0,0E0,0E0],"parents":[2147483647,0,0,1,1,2,2,3,3,4,4,5,5,6,6,7,7,8,8,9,9,10,10,11,11,12,12,13,13,14,14,15,15,16,16,17,17,18,18,19,19,20,20,21,21,22,22,23,23,24,24,25,25,26,26,27,27,28,28,29,29,30,30,31,31,32,32,33,33,34,34,35,35,36,36,37,37,38,38,39,39,40,40,41,41,42,42,43,43,44,44,45,45,46,46,47,47,48,48,49,49,50,50,51,51,52,52,53,53,54,54,55,55,56,56,57,57,58,58,59,59,60,60,61,61,62,62],"right_children":[2,4,6,8,10,12,14,16,18,20,22,24,26,28,30,32,34,36,38,40,42,44,46,48,50,52,54,56,58,60,62,64,66,68,70,72,74,76,78,80,82,84,86,88,90,92,94,96,98,100,102,104,106,108,110,112,114,116,118,120,122,124,126,-1,-1,-1,-1,-1,-1,-1,-1,-1,-1,-1,-1,-1,-1,-1,-1,-1,-1,-1,-1,-1,-1,-1,-1,-1,-1,-1,-1,-1,-1,-1,-1,-1,-1,-1,-1,-1,-1,-1,-1,-1,-1,-1,-1,-1,-1,-1,-1,-1,-1,-1,-1,-1,-1,-1,-1,-1,-1,-1,-1,-1,-1,-1,-1],"split_conditions":[2E0,1E0,4E0,9.7E0,2.8E1,1E0,1E0,5.8333335E0,1E0,1E0,5.8333335E0,3E0,2.8E1,5E0,9.7E0,2.7258926E1,1E0,1.44E1,2.8E1,5.9E0,9.7E0,1.759309E2,8.6932373E-1,9.9E0,1E0,3E0,5.7E1,1E0,5.8333335E0,2E1,5E0,1.788401E2,2.7E1,3E1,1E0,1E0,1E0,1E0,1.3296787E0,9.7E0,7.2E0,1.056037E2,1.44E1,1.05039474E2,1E0,8.7E1,1.3333353E0,6.0333333E0,1.44E1,7.2E0,8.7E1,1.44E1,5.8333335E0,3.5E1,9.7E0,1.65E1,9.9E0,1.056037E2,1.65E1,8.6119044E-1,1.3475284E2,1.44E1,1.45E1,1.901466E-1,3.7506068E-1,5.9060026E-2,2.3161061E-1,-6.482031E-2,1.5163493E-1,2.7743598E-2,1.1547905E-1,-1.488825E-1,-2.1707334E-2,-4.91755E-2,1.8483795E-1,-2.8927295E-2,4.571269E-2,7.5208835E-2,2.376792E-1,1.0573037E-1,2.9956087E-2,-3.3178274E-2,4.279252E-2,3.0937335E-1,1.1825406E-1,3.5181444E-2,1.19322084E-1,3.759343E-1,1.6122507E-1,2.802057E-1,3.9236227E-1,1.6443351E-1,3.017602E-1,6.339409E-2,1.7173515E-1,2.0125286E-1,1.118203E-1,4.2565566E-2,1.2091186E-1,1.12428345E-1,2.0842992E-1,2.1246064E-1,3.31667E-1,1.1196776E-1,1.9719948E-1,2.6615494E-1,1.7929171E-1,4.5906138E-2,4.4639927E-1,3.0911916E-1,2.2186454E-1,1.7547165E-1,2.6546887E-1,4.2250577E-1,2.845368E-1,4.6473318E-1,3.4163117E-1,2.430059E-1,3.342443E-1,4.6427798E-1,3.170839E-1,5.698753E-1,4.1021785E-1,2.3607838E-1,3.250223E-1,3.0519772E-1,3.9646468E-1],"split_indices":[0,26,0,13,17,26,26,21,24,0,21,0,17,0,13,19,12,13,17,21,13,16,18,13,12,0,20,4,21,17,0,16,17,17,0,25,7,0,18,13,21,16,13,16,4,20,18,21,13,21,20,13,21,20,13,14,13,16,14,18,15,13,13,0,0,0,0,0,0,0,0,0,0,0,0,0,0,0,0,0,0,0,0,0,0,0,0,0,0,0,0,0,0,0,0,0,0,0,0,0,0,0,0,0,0,0,0,0,0,0,0,0,0,0,0,0,0,0,0,0,0,0,0,0,0,0,0],"split_type":[0,0,0,0,0,0,0,0,0,0,0,0,0,0,0,0,0,0,0,0,0,0,0,0,0,0,0,0,0,0,0,0,0,0,0,0,0,0,0,0,0,0,0,0,0,0,0,0,0,0,0,0,0,0,0,0,0,0,0,0,0,0,0,0,0,0,0,0,0,0,0,0,0,0,0,0,0,0,0,0,0,0,0,0,0,0,0,0,0,0,0,0,0,0,0,0,0,0,0,0,0,0,0,0,0,0,0,0,0,0,0,0,0,0,0,0,0,0,0,0,0,0,0,0,0,0,0],"sum_hessian":[8E4,5.6069E4,2.3931E4,3.8783E4,1.7286E4,1.4392E4,9.539E3,4.131E3,3.4652E4,1.532E4,1.966E3,9.983E3,4.409E3,6.678E3,2.861E3,7.51E2,3.38E3,3.2389E4,2.263E3,1.2082E4,3.238E3,3.82E2,1.584E3,5.52E3,4.463E3,3.938E3,4.71E2,3.921E3,2.757E3,4.46E2,2.415E3,9.1E1,6.6E2,2.463E3,9.17E2,2.8807E4,3.582E3,2.047E3,2.16E2,1.446E3,1.0636E4,3.93E2,2.845E3,3.25E2,5.7E1,2.21E2,1.363E3,6.83E2,4.837E3,4.196E3,2.67E2,2.201E3,1.737E3,3.2E1,4.39E2,3.705E3,2.16E2,2.02E2,2.555E3,2.6E2,1.86E2,1.371E3,1.044E3,7.6E1,1.5E1,6.06E2,5.4E1,2.37E3,9.3E1,7.33E2,1.84E2,2.683E4,1.977E3,3.489E3,9.3E1,1.637E3,4.1E2,1.9E2,2.6E1,4.98E2,9.48E2,8.769E3,1.867E3,4.9E1,3.44E2,2.37E3,4.75E2,3.6E1,2.89E2,2.7E1,3E1,1.9E2,3.1E1,1.189E3,1.74E2,1.42E2,5.41E2,4.303E3,5.34E2,3.925E3,2.71E2,2.23E2,4.4E1,1.913E3,2.88E2,2.27E2,1.51E3,1E0,3.1E1,1.59E2,2.8E2,3.361E3,3.44E2,3.8E1,1.78E2,3E1,1.72E2,2.304E3,2.51E2,3E1,2.3E2,2.9E1,1.57E2,1.16E3,2.11E2,8.93E2,1.51E2],"tree_param":{"num_deleted":"0","num_feature":"27","num_nodes":"127","size_leaf_vector":"1"}},{"base_weights":[7.342541E-4,-6.314343E-1,1.4818344E0,-9.8112345E-1,1.5314233E-1,1.017554E0,2.1821392E0,-1.0627344E0,3.3393997E-1,9.066403E-1,1.6661078E-2,8.095203E-1,1.4883004E0,2.1026404E0,3.535053E0,-1.133029E0,8.52598E-2,1.6869788E-1,9.5532626E-1,6.8230057E-1,1.6342915E0,-9.323483E-2,6.3564587E-1,5.498931E-1,1.1304415E0,2.263914E0,1.3388546E0,1.8438324E0,2.4665399E0,4.248142E0,3.18159E0,-1.2218397E0,-2.880327E-1,7.684986E-1,-1.723525E-2,8.532602E-1,3.4867562E-2,8.677836E-1,3.0152848E0,1.8465375E0,5.567345E-1,3.0042412E0,1.4859176E0,-2.2603402E-1,3.9960173E-1,4.9640054E-1,1.5921791E0,1.4258496E0,4.8285118E-1,2.0685651E0,1.0543187E0,2.981183E0,1.9490715E0,1.1919036E0,2.074061E0,2.7429109E0,1.7597498E0,2.3039682E0,3.0047798E0,5.2959976E0,3.8235593E0,2.9142368E0,3.6315303E0,-1.3658516E-1,-7.083308E-2,-4.172576E-2,5.722272E-2,6.1268546E-2,1.6685836E-1,-1.4630772E-2,6.9963954E-2,1.9965191E-1,6.698602E-2,-7.2700167E-3,1.13195874E-1,1.6398719E-1,7.195188E-2,3.200109E-1,9.6285366E-2,1.6068274E-1,3.1273624E-1,4.147997E-2,1.4449972E-1,2.3783219E-1,3.785396E-1,2.570675E-1,1.2857927E-1,-3.09212E-2,5.576724E-2,1.0394688E-1,3.00986E-2,1.495402E-1,3.142928E-2,3.304698E-1,1.42606E-1,2.0750666E-1,1.184205E-1,4.2140808E-2,1.436833E-1,1.9535129E-1,5.6009024E-1,9.826395E-2,1.9763225E-1,2.7068326E-1,4.6474728E-1,1.5092847E-1,2.316217E-1,9.152213E-2,1.5396184E-1,1.7723241E-1,2.668889E-1,3.2459834E-1,2.4996462E-1,1.670192E-1,2.643647E-1,2.2257121E-1,3.3638415E-1,2.8812394E-1,3.7335455E-1,6.939222E-1,4.664336E-1,3.3540094E-1,4.7152114E-1,2.572798E-1,3.336603E-1,3.456338E-1,4.8237285E-1],"categories":[],"categories_nodes":[],"categories_segments":[],"categories_sizes":[],"default_left":[0,0,0,0,0,0,0,0,0,0,0,0,0,0,0,0,0,0,0,0,0,0,0,0,0,0,0,0,0,0,0,0,0,0,0,0,0,0,0,0,0,0,0,0,0,0,0,0,0,0,0,0,0,0,0,0,0,0,0,0,0,0,0,0,0,0,0,0,0,0,0,0,0,0,0,0,0,0,0,0,0,0,0,0,0,0,0,0,0,0,0,0,0,0,0,0,0,0,0,0,0,0,0,0,0,0,0,0,0,0,0,0,0,0,0,0,0,0,0,0,0,0,0,0,0,0,0],"id":5,"left_children":[1,3,5,7,9,11,13,15,17,19,21,23,25,27,29,31,33,35,37,39,41,43,45,47,49,51,53,55,57,59,61,63,65,67,69,71,73,75,77,79,81,83,85,87,89,91,93,95,97,99,101,103,105,107,109,111,113,115,117,119,121,123,125,-1,-1,-1,-1,-1,-1,-1,-1,-1,-1,-1,-1,-1,-1,-1,-1,-1,-1,-1,-1,-1,-1,-1,-1,-1,-1,-1,-1,-1,-1,-1,-1,-1,-1,-1,-1,-1,-1,-1,-1,-1,-1,-1,-1,-1,-1,-1,-1,-1,-1,-1,-1,-1,-1,-1,-1,-1,-1,-1,-1,-1,-1,-1,-1],"loss_changes":[7.4906266E4,1.5383402E4,7.7789727E3,4.162789E3,1.7777513E3,1.4083184E3,1.0186406E3,2.9470234E3,2.3261249E2,4.3163696E2,9.95725E2,8.3124365E2,5.0814258E2,8.443008E2,1.1956641E2,2.5820078E3,1.4763353E2,1.6414468E2,8.32225E1,2.954425E2,1.2237317E2,8.1367804E2,2.9316608E2,3.2353662E2,3.1660596E2,1.547522E2,3.9727295E2,3.9364453E2,3.205996E2,5.6273438E1,3.2361816E1,2.3017305E3,3.6419943E2,3.754506E1,1.6980017E2,6.009703E1,1.770997E2,5.1248962E1,4.1262054E0,5.5459045E1,2.3037067E2,2.0333496E1,1.19348755E2,6.3855E2,1.662106E2,3.5028308E2,7.494238E1,5.903961E1,3.0009265E2,1.2479712E2,2.7106934E2,8.5706665E1,7.675281E1,2.9548438E2,1.0565088E2,4.6834473E1,3.7737207E2,2.3130078E2,6.712012E1,1.6417236E1,3.6938232E1,2.4440063E1,1.0270996E1,0E0,0E0,0E0,0E0,0E0,0E0,0E0,0E0,0E0,0E0,0E0,0E0,0E0,0E0,0E0,0E0,0E0,0E0,0E0,0E0,0E0,0E0,0E0,0E0,0E0,0E0,0E0,0E0,0E0,0E0,0E0,0E0,0E0,0E0,0E0,0E0,0E0,0E0,0E0,0E0,0E0,0E0,0E0,0E0,0E0,0E0,0E0,0E0,0E0,0E0,0E0,0E0,0E0,0E0,0E0,0E0,0E0,0E0,0E0,0E0,0E0,0E0,0E0,0E0],"parents":[2147483647,0,0,1,1,2,2,3,3,4,4,5,5,6,6,7,7,8,8,9,9,10,10,11,11,12,12,13,13,14,14,15,15,16,16,17,17,18,18,19,19,20,20,21,21,22,22,23,23,24,24,25,25,26,26,27,27,28,28,29,29,30,30,31,31,32,32,33,33,34,34,35,35,36,36,37,37,38,38,39,39,40,40,41,41,42,42,43,43,44,44,45,45,46,46,47,47,48,48,49,49,50,50,51,51,52,52,53,53,54,54,55,55,56,56,57,57,58,58,59,59,60,60,61,61,62,62],"right_children":[2,4,6,8,10,12,14,16,18,20,22,24,26,28,30,32,34,36,38,40,42,44,46,48,50,52,54,56,58,60,62,64,66,68,70,72,74,76,78,80,82,84,86,88,90,92,94,96,98,100,102,104,106,108,110,112,114,116,118,120,122,124,126,-1,-1,-1,-1,-1,-1,-1,-1,-1,-1,-1,-1,-1,-1,-1,-1,-1,-1,-1,-1,-1,-1,-1,-1,-1,-1,-1,-1,-1,-1,-1,-1,-1,-1,-1,-1,-1,-1,-1,-1,-1,-1,-1,-1,-1,-1,-1,-1,-1,-1,-1,-1,-1,-1,-1,-1,-1,-1,-1,-1,-1,-1,-1,-1],"split_conditions":[2E0,1E0,4E0,1E0,9.7E0,1E0,2.7E1,1E0,1E0,3E1,1.44E1,3E0,9.7E0,5E0,9.8E0,1.65E1,1.3444229E2,5.8333335E0,3E1,4.1E0,1.3439018E2,1E0,1.4139372E2,5.8333335E0,5.8333335E0,5.8333335E0,7.2E0,5.9E0,1E0,1.2237123E2,1E0,1E0,1.413369E2,7.133333E0,1.413369E2,2.7258926E1,7.133333E0,5.8333335E0,1.4212375E0,1.3449982E0,3.210803E1,1E0,8.6520004E-1,2.8E1,2.7540335E1,1.3444229E2,8.316958E-1,9.7E0,7.133333E0,4E1,7.2E0,1.3449982E0,1.25E1,3E0,1.44E1,9.7E0,7.133333E0,1E0,7.35E0,2.8142094E1,1E0,5E0,1.45E1,-1.3658516E-1,-7.083308E-2,-4.172576E-2,5.722272E-2,6.1268546E-2,1.6685836E-1,-1.4630772E-2,6.9963954E-2,1.9965191E-1,6.698602E-2,-7.2700167E-3,1.13195874E-1,1.6398719E-1,7.195188E-2,3.200109E-1,9.6285366E-2,1.6068274E-1,3.1273624E-1,4.147997E-2,1.4449972E-1,2.3783219E-1,3.785396E-1,2.570675E-1,1.2857927E-1,-3.09212E-2,5.576724E-2,1.0394688E-1,3.00986E-2,1.495402E-1,3.142928E-2,3.304698E-1,1.42606E-1,2.0750666E-1,1.184205E-1,4.2140808E-2,1.436833E-1,1.9535129E-1,5.6009024E-1,9.826395E-2,1.9763225E-1,2.7068326E-1,4.6474728E-1,1.5092847E-1,2.316217E-1,9.152213E-2,1.5396184E-1,1.7723241E-1,2.668889E-1,3.2459834E-1,2.4996462E-1,1.670192E-1,2.643647E-1,2.2257121E-1,3.3638415E-1,2.8812394E-1,3.7335455E-1,6.939222E-1,4.664336E-1,3.3540094E-1,4.7152114E-1,2.572798E-1,3.336603E-1,3.456338E-1,4.8237285E-1],"split_indices":[0,26,0,12,13,26,17,4,0,17,13,0,13,0,13,14,15,21,17,14,15,0,15,21,21,21,21,21,7,16,11,0,15,21,15,19,21,21,18,18,19,4,18,17,19,15,18,13,21,17,21,18,17,0,13,13,21,12,21,19,4,0,13,0,0,0,0,0,0,0,0,0,0,0,0,0,0,0,0,0,0,0,0,0,0,0,0,0,0,0,0,0,0,0,0,0,0,0,0,0,0,0,0,0,0,0,0,0,0,0,0,0,0,0,0,0,0,0,0,0,0,0,0,0,0,0,0],"split_type":[0,0,0,0,0,0,0,0,0,0,0,0,0,0,0,0,0,0,0,0,0,0,0,0,0,0,0,0,0,0,0,0,0,0,0,0,0,0,0,0,0,0,0,0,0,0,0,0,0,0,0,0,0,0,0,0,0,0,0,0,0,0,0,0,0,0,0,0,0,0,0,0,0,0,0,0,0,0,0,0,0,0,0,0,0,0,0,0,0,0,0,0,0,0,0,0,0,0,0,0,0,0,0,0,0,0,0,0,0,0,0,0,0,0,0,0,0,0,0,0,0,0,0,0,0,0,0],"sum_hessian":[8E4,5.6069E4,2.3931E4,3.8783E4,1.7286E4,1.4392E4,9.539E3,3.6517E4,2.266E3,2.65E3,1.4636E4,9.983E3,4.409E3,9.012E3,5.27E2,3.441E4,2.107E3,1.791E3,4.75E2,2.027E3,6.23E2,1.243E4,2.206E3,5.52E3,4.463E3,7.1E2,3.699E3,5.27E3,3.742E3,1.71E2,3.56E2,3.1137E4,3.273E3,2.74E2,1.833E3,2.92E2,1.499E3,4.57E2,1.8E1,1.96E2,1.831E3,5.9E1,5.64E2,9.792E3,2.638E3,1.927E3,2.79E2,3.91E2,5.129E3,3.33E2,4.13E3,2.14E2,4.96E2,3.085E3,6.14E2,4.48E2,4.822E3,2.878E3,8.64E2,4.6E1,1.25E2,2.28E2,1.28E2,2.4316E4,6.821E3,2.846E3,4.27E2,2.35E2,3.9E1,1.554E3,2.79E2,3.9E1,2.53E2,1.366E3,1.33E2,7.2E1,3.85E2,1.6E1,2E0,1.67E2,2.9E1,1.58E3,2.51E2,3.5E1,2.4E1,8.6E1,4.78E2,8.853E3,9.39E2,3.51E2,2.287E3,2.96E2,1.631E3,2.3E1,2.56E2,1.04E2,2.87E2,4.82E3,3.09E2,3.24E2,9E0,3.834E3,2.96E2,1.86E2,2.8E1,2.28E2,2.68E2,1.72E3,1.365E3,4.1E2,2.04E2,1.42E2,3.06E2,4.381E3,4.41E2,2.683E3,1.95E2,7.43E2,1.21E2,1E1,3.6E1,8.5E1,4E1,1.3E2,9.8E1,1.15E2,1.3E1],"tree_param":{"num_deleted":"0","num_feature":"27","num_nodes":"127","size_leaf_vector":"1"}},{"base_weights":[8.1800926E-4,-5.682268E-1,1.3340263E0,-8.829823E-1,1.3797125E-1,9.1603285E-1,1.9645133E0,2.819617E-3,-9.885792E-1,4.036216E-2,1.0134463E0,8.3863896E-1,2.0140262E0,2.771556E0,1.8531255E0,8.6512595E-1,-1.8897487E-1,-1.082296E0,-2.4111284E-1,-8.468703E-2,5.0688833E-1,1.7725307E0,8.1951207E-1,5.992271E-1,1.1355997E0,2.6467254E0,1.7335042E0,2.6034358E0,4.0017967E0,1.614438E0,2.1844063E0,7.002116E-1,2.0405965E0,-4.047759E-1,3.904616E-1,-1.1509887E0,-8.482485E-2,-3.5779417E-1,7.985676E-1,-1.7639694E-1,5.6336755E-1,1.2364149E0,4.010791E-1,1.5601413E0,2.9678512E0,6.331302E-1,1.5784721E0,4.6108744E-1,1.0554601E0,9.904255E-1,1.6374143E0,2.4178593E0,4.3489037E0,1.3071709E0,2.0373182E0,3.6900015E0,2.463842E0,3.6016908E0,5.3676496E0,1.5102992E0,2.354431E0,2.0277975E0,2.6704175E0,5.918886E-2,2.3671281E-1,4.0032965E-1,1.6961503E-1,-4.785597E-2,1.4606082E-1,1.2561797E-1,2.6244015E-2,-1.2276614E-1,-1.1036373E-2,-2.9103307E-2,4.774741E-2,-4.8185352E-2,4.9182594E-2,5.6059826E-2,2.4055472E-1,4.3832634E-2,-2.7965555E-2,1.4221503E-1,4.178257E-2,2.6586506E-1,1.02593444E-1,3.0466596E-2,1.0545041E-1,3.0616942E-1,1.424899E-1,2.2307912E-1,3.567692E-1,1.4663306E-1,5.086575E-2,2.929445E-1,1.398891E-1,3.8046896E-2,1.20149545E-1,1.8158673E-1,9.582368E-2,1.7188242E-1,9.0161465E-2,2.5143626E-1,1.534255E-1,4.015579E-1,2.2511978E-1,4.471715E-1,2.0946695E-2,2.2498022E-1,1.1878722E-1,1.8927704E-1,2.9839766E-1,4.9775085E-1,3.3631116E-1,2.3138061E-1,3.4757087E-1,5.711879E-1,3.3065483E-1,1.3095872E-1,5.46581E-1,1.377654E-1,1.9971411E-1,3.229313E-1,2.1977532E-1,2.648152E-1,1.935355E-1,2.5284845E-1,3.3506975E-1],"categories":[],"categories_nodes":[],"categories_segments":[],"categories_sizes":[],"default_left":[0,0,0,0,0,0,0,0,0,0,0,0,0,0,0,0,0,0,0,0,0,0,0,0,0,0,0,0,0,0,0,0,0,0,0,0,0,0,0,0,0,0,0,0,0,0,0,0,0,0,0,0,0,0,0,0,0,0,0,0,0,0,0,0,0,0,0,0,0,0,0,0,0,0,0,0,0,0,0,0,0,0,0,0,0,0,0,0,0,0,0,0,0,0,0,0,0,0,0,0,0,0,0,0,0,0,0,0,0,0,0,0,0,0,0,0,0,0,0,0,0,0,0,0,0,0,0],"id":6,"left_children":[1,3,5,7,9,11,13,15,17,19,21,23,25,27,29,31,33,35,37,39,41,43,45,47,49,51,53,55,57,59,61,63,65,67,69,71,73,75,77,79,81,83,85,87,89,91,93,95,97,99,101,103,105,107,109,111,113,115,117,119,121,123,125,-1,-1,-1,-1,-1,-1,-1,-1,-1,-1,-1,-1,-1,-1,-1,-1,-1,-1,-1,-1,-1,-1,-1,-1,-1,-1,-1,-1,-1,-1,-1,-1,-1,-1,-1,-1,-1,-1,-1,-1,-1,-1,-1,-1,-1,-1,-1,-1,-1,-1,-1,-1,-1,-1,-1,-1,-1,-1,-1,-1,-1,-1,-1,-1],"loss_changes":[6.0693938E4,1.2463344E4,6.3052266E3,3.6277793E3,1.4772083E3,1.2214004E3,8.5246094E2,6.8353687E2,2.4271875E3,9.0744336E2,2.5381372E2,9.553467E2,1.6349121E2,2.2846875E2,6.595781E2,1.4434784E2,4.2292834E2,2.1097344E3,4.6878992E2,7.291643E2,2.53307E2,8.473328E1,1.9463489E2,4.688523E2,4.355542E2,1.0207092E2,8.269446E1,1.4546777E2,5.553589E1,3.7235156E2,2.6166797E2,1.17952576E2,5.5405914E1,3.3983182E2,1.01412704E2,2.2983867E3,2.3030101E2,3.663027E2,1.4779211E2,6.8229346E2,1.8951385E2,1.218031E2,1.8067413E2,5.6762512E1,1.5031403E1,1.1458038E2,6.1891663E1,3.408534E2,1.2615747E2,2.9970996E2,1.17818115E2,5.9393677E1,1.5839539E1,2.847754E1,4.6760742E1,3.1239746E1,1.2950342E2,4.8999268E1,4.39386E0,2.7357422E2,7.514746E1,1.4730371E2,7.379248E1,0E0,0E0,0E0,0E0,0E0,0E0,0E0,0E0,0E0,0E0,0E0,0E0,0E0,0E0,0E0,0E0,0E0,0E0,0E0,0E0,0E0,0E0,0E0,0E0,0E0,0E0,0E0,0E0,0E0,0E0,0E0,0E0,0E0,0E0,0E0,0E0,0E0,0E0,0E0,0E0,0E0,0E0,0E0,0E0,0E0,0E0,0E0,0E0,0E0,0E0,0E0,0E0,0E0,0E0,0E0,0E0,0E0,0E0,0E0,0E0,0E0,0E0,0E0,0E0],"parents":[2147483647,0,0,1,1,2,2,3,3,4,4,5,5,6,6,7,7,8,8,9,9,10,10,11,11,12,12,13,13,14,14,15,15,16,16,17,17,18,18,19,19,20,20,21,21,22,22,23,23,24,24,25,25,26,26,27,27,28,28,29,29,30,30,31,31,32,32,33,33,34,34,35,35,36,36,37,37,38,38,39,39,40,40,41,41,42,42,43,43,44,44,45,45,46,46,47,47,48,48,49,49,50,50,51,51,52,52,53,53,54,54,55,55,56,56,57,57,58,58,59,59,60,60,61,61,62,62],"right_children":[2,4,6,8,10,12,14,16,18,20,22,24,26,28,30,32,34,36,38,40,42,44,46,48,50,52,54,56,58,60,62,64,66,68,70,72,74,76,78,80,82,84,86,88,90,92,94,96,98,100,102,104,106,108,110,112,114,116,118,120,122,124,126,-1,-1,-1,-1,-1,-1,-1,-1,-1,-1,-1,-1,-1,-1,-1,-1,-1,-1,-1,-1,-1,-1,-1,-1,-1,-1,-1,-1,-1,-1,-1,-1,-1,-1,-1,-1,-1,-1,-1,-1,-1,-1,-1,-1,-1,-1,-1,-1,-1,-1,-1,-1,-1,-1,-1,-1,-1,-1,-1,-1,-1,-1,-1,-1],"split_conditions":[2E0,1E0,4E0,9.7E0,3E1,2.5E1,9.7E0,5.8333335E0,1.44E1,1E0,5.8333335E0,3E0,9.8E0,3E1,5E0,8.8E1,1E0,1E0,7.133333E0,1.7647696E2,1.0739113E2,8.7E1,7.133333E0,1E0,1E0,8.7E1,3E1,8.6932373E-1,8.4E1,1.44E1,1E0,3.2E1,1.0373404E2,3E1,8.573029E-1,1E0,1E0,1.3296787E0,1E0,1.0739113E2,8.8063544E-1,9.7E0,1.3296787E0,4.8E0,1.3768077E2,2.7467564E1,1.3414441E2,1.63E1,5.8333335E0,9.7E0,6E1,5.7E1,1.06E2,1.3433002E2,1.3296787E0,1.3481062E2,1.3296787E0,5.4E1,2.5281082E1,1E0,1.0848013E2,2.7467564E1,1.45E1,5.918886E-2,2.3671281E-1,4.0032965E-1,1.6961503E-1,-4.785597E-2,1.4606082E-1,1.2561797E-1,2.6244015E-2,-1.2276614E-1,-1.1036373E-2,-2.9103307E-2,4.774741E-2,-4.8185352E-2,4.9182594E-2,5.6059826E-2,2.4055472E-1,4.3832634E-2,-2.7965555E-2,1.4221503E-1,4.178257E-2,2.6586506E-1,1.02593444E-1,3.0466596E-2,1.0545041E-1,3.0616942E-1,1.424899E-1,2.2307912E-1,3.567692E-1,1.4663306E-1,5.086575E-2,2.929445E-1,1.398891E-1,3.8046896E-2,1.20149545E-1,1.8158673E-1,9.582368E-2,1.7188242E-1,9.0161465E-2,2.5143626E-1,1.534255E-1,4.015579E-1,2.2511978E-1,4.471715E-1,2.0946695E-2,2.2498022E-1,1.1878722E-1,1.8927704E-1,2.9839766E-1,4.9775085E-1,3.3631116E-1,2.3138061E-1,3.4757087E-1,5.711879E-1,3.3065483E-1,1.3095872E-1,5.46581E-1,1.377654E-1,1.9971411E-1,3.229313E-1,2.1977532E-1,2.648152E-1,1.935355E-1,2.5284845E-1,3.3506975E-1],"split_indices":[0,26,0,13,17,17,13,21,13,0,21,0,13,17,0,20,12,24,21,16,16,20,21,7,7,20,17,18,20,13,7,17,16,17,18,25,11,18,7,16,18,13,18,14,15,19,15,14,21,13,20,20,20,15,18,15,18,20,19,7,16,19,13,0,0,0,0,0,0,0,0,0,0,0,0,0,0,0,0,0,0,0,0,0,0,0,0,0,0,0,0,0,0,0,0,0,0,0,0,0,0,0,0,0,0,0,0,0,0,0,0,0,0,0,0,0,0,0,0,0,0,0,0,0,0,0,0],"split_type":[0,0,0,0,0,0,0,0,0,0,0,0,0,0,0,0,0,0,0,0,0,0,0,0,0,0,0,0,0,0,0,0,0,0,0,0,0,0,0,0,0,0,0,0,0,0,0,0,0,0,0,0,0,0,0,0,0,0,0,0,0,0,0,0,0,0,0,0,0,0,0,0,0,0,0,0,0,0,0,0,0,0,0,0,0,0,0,0,0,0,0,0,0,0,0,0,0,0,0,0,0,0,0,0,0,0,0,0,0,0,0,0,0,0,0,0,0,0,0,0,0,0,0,0,0,0,0],"sum_hessian":[8E4,5.6069E4,2.3931E4,3.8783E4,1.7286E4,1.4392E4,9.539E3,4.131E3,3.4652E4,1.5553E4,1.733E3,1.3446E4,9.46E2,1.154E3,8.385E3,7.51E2,3.38E3,3.0791E4,3.861E3,1.2266E4,3.287E3,3.51E2,1.382E3,7.446E3,6E3,2.88E2,6.58E2,1.018E3,1.36E2,4.877E3,3.508E3,6.6E2,9.1E1,2.463E3,9.17E2,2.8807E4,1.984E3,3.472E3,3.89E2,1.0746E4,1.52E3,4.15E2,2.872E3,3E2,5.1E1,1.111E3,2.71E2,5.717E3,1.729E3,4.656E3,1.344E3,2.56E2,3.2E1,2.76E2,3.82E2,1.13E2,9.05E2,1.08E2,2.8E1,4.278E3,5.99E2,2.657E3,8.51E2,6.21E2,3.9E1,1.2E1,7.9E1,2.37E3,9.3E1,1.17E2,8E2,2.683E4,1.977E3,1.452E3,5.32E2,3.03E3,4.42E2,3.4E2,4.9E1,1.545E3,9.201E3,2.19E2,1.301E3,5.2E1,3.63E2,2.504E3,3.68E2,2.3E1,2.77E2,2.5E1,2.6E1,1.43E2,9.68E2,3E1,2.41E2,5.157E3,5.6E2,1.94E2,1.535E3,5.04E2,4.152E3,1.39E2,1.205E3,2.2E1,2.34E2,3.1E1,1E0,2.9E1,2.47E2,3.34E2,4.8E1,2E1,9.3E1,7.91E2,1.14E2,1.1E1,9.7E1,1E0,2.7E1,3.365E3,9.13E2,8.8E1,5.11E2,3.41E2,2.316E3,7.08E2,1.43E2],"tree_param":{"num_deleted":"0","num_feature":"27","num_nodes":"127","size_leaf_vector":"1"}},{"base_weights":[8.8134245E-4,-5.113388E-1,1.2009559E0,-7.4961257E-1,2.4463964E-1,8.2464004E-1,1.7685777E0,-8.355115E-1,4.036508E-1,1.7012174E-1,1.1896751E0,1.6879104E0,7.377086E-1,2.6760032E0,1.6768668E0,-9.810696E-1,-3.3652186E-1,2.8627512E-1,1.1529657E0,7.893212E-2,7.99662E-1,1.0254439E0,2.2303278E0,1.5627216E0,3.087822E0,6.401075E-1,1.634486E0,2.5477686E0,3.9702282E0,1.5792868E0,2.5700688E0,-1.064994E0,-2.4156845E-1,-4.8396814E-1,5.1519847E-1,9.94171E-1,1.7541696E-1,9.995884E-1,2.1829476E0,7.4210185E-1,-3.187725E-2,6.338852E-1,1.5114282E0,2.1559422E0,8.402598E-1,4.4941597E0,2.0688913E0,1.4391145E0,2.605457E0,5.2611583E-1,2.8590558E0,4.3203592E-1,9.033208E-1,2.4740005E0,1.4996583E0,3.4366646E0,2.424199E0,4.547452E0,2.9670105E0,1.370185E0,1.8723279E0,3.6718867E0,2.4186678E0,-1.19436696E-1,-6.0388114E-2,-3.5790827E-2,6.1731707E-2,-6.094837E-2,9.606641E-3,1.573809E-1,3.598562E-2,8.399438E-2,2.2221196E-1,5.903367E-3,8.813366E-2,1.8517075E-1,8.613002E-2,1.6453035E-1,3.363607E-1,6.0527105E-2,1.6576329E-1,-1.1719377E-2,5.36622E-2,1.5262899E-1,4.6721186E-2,1.3065031E-1,2.6600555E-1,1.8210755E-1,3.4744695E-1,7.0569135E-2,1.8699585E-1,4.8842964E-1,8.816023E-2,2.7659872E-1,1.8123023E-1,1.9507945E-1,1.22129016E-1,2.2909124E-1,3.6855894E-1,4.7119877E-1,2.5493184E-1,3.450465E-2,1.011227E-1,8.318331E-2,1.7267838E-1,3.373239E-1,2.1847153E-1,1.3469784E-1,2.5124118E-1,4.8240706E-1,3.15788E-1,2.87966E-1,2.1971194E-1,1.8302806E-1,4.6911165E-1,3.281634E-2,3.0440333E-1,1.9700529E-1,1.2823825E-1,1.8096398E-1,2.7076516E-1,5.787549E-1,3.3489996E-1,2.2739351E-1,3.3085474E-1],"categories":[],"categories_nodes":[],"categories_segments":[],"categories_sizes":[],"default_left":[0,0,0,0,0,0,0,0,0,0,0,0,0,0,0,0,0,0,0,0,0,0,0,0,0,0,0,0,0,0,0,0,0,0,0,0,0,0,0,0,0,0,0,0,0,0,0,0,0,0,0,0,0,0,0,0,0,0,0,0,0,0,0,0,0,0,0,0,0,0,0,0,0,0,0,0,0,0,0,0,0,0,0,0,0,0,0,0,0,0,0,0,0,0,0,0,0,0,0,0,0,0,0,0,0,0,0,0,0,0,0,0,0,0,0,0,0,0,0,0,0,0,0,0,0],"id":7,"left_children":[1,3,5,7,9,11,13,15,17,19,21,23,25,27,29,31,33,35,37,39,41,43,45,47,49,51,53,55,57,59,61,63,65,67,69,71,73,75,77,79,81,83,85,87,89,91,93,95,97,-1,99,101,103,105,107,109,111,113,115,117,119,121,123,-1,-1,-1,-1,-1,-1,-1,-1,-1,-1,-1,-1,-1,-1,-1,-1,-1,-1,-1,-1,-1,-1,-1,-1,-1,-1,-1,-1,-1,-1,-1,-1,-1,-1,-1,-1,-1,-1,-1,-1,-1,-1,-1,-1,-1,-1,-1,-1,-1,-1,-1,-1,-1,-1,-1,-1,-1,-1,-1,-1,-1,-1],"loss_changes":[4.9177414E4,1.0100063E4,5.110539E3,4.2237344E3,9.4612915E2,1.0788828E3,7.8943945E2,2.8815645E3,2.596541E2,7.1506256E2,1.6554419E2,2.2580762E2,1.143624E3,1.3493848E2,7.513457E2,1.9061074E3,1.1257242E3,2.0048882E2,6.100824E1,7.99692E2,1.8500098E2,1.7613623E2,3.930896E1,1.5220679E2,3.815686E1,6.4564404E2,1.4151245E2,7.93208E1,3.1097046E1,4.7636328E2,1.332461E2,1.6449375E3,3.1317853E2,5.562761E2,2.1699701E2,6.3660126E1,1.8167981E2,3.9648438E1,2.683937E1,1.9417169E2,4.5234756E2,1.896742E2,6.643329E1,4.6214905E1,1.00109924E2,6.9691315E0,1.7524414E1,1.1843628E2,3.4704956E1,0E0,4.480597E1,3.3167847E2,3.0508594E2,3.841455E1,1.6794263E2,2.1510986E1,6.648486E1,9.760864E0,5.30188E0,2.3791211E2,1.6539062E2,4.961267E1,8.933008E1,0E0,0E0,0E0,0E0,0E0,0E0,0E0,0E0,0E0,0E0,0E0,0E0,0E0,0E0,0E0,0E0,0E0,0E0,0E0,0E0,0E0,0E0,0E0,0E0,0E0,0E0,0E0,0E0,0E0,0E0,0E0,0E0,0E0,0E0,0E0,0E0,0E0,0E0,0E0,0E0,0E0,0E0,0E0,0E0,0E0,0E0,0E0,0E0,0E0,0E0,0E0,0E0,0E0,0E0,0E0,0E0,0E0,0E0,0E0,0E0,0E0,0E0],"parents":[2147483647,0,0,1,1,2,2,3,3,4,4,5,5,6,6,7,7,8,8,9,9,10,10,11,11,12,12,13,13,14,14,15,15,16,16,17,17,18,18,19,19,20,20,21,21,22,22,23,23,24,24,25,25,26,26,27,27,28,28,29,29,30,30,31,31,32,32,33,33,34,34,35,35,36,36,37,37,38,38,39,39,40,40,41,41,42,42,43,43,44,44,45,45,46,46,47,47,48,48,50,50,51,51,52,52,53,53,54,54,55,55,56,56,57,57,58,58,59,59,60,60,61,61,62,62],"right_children":[2,4,6,8,10,12,14,16,18,20,22,24,26,28,30,32,34,36,38,40,42,44,46,48,50,52,54,56,58,60,62,64,66,68,70,72,74,76,78,80,82,84,86,88,90,92,94,96,98,-1,100,102,104,106,108,110,112,114,116,118,120,122,124,-1,-1,-1,-1,-1,-1,-1,-1,-1,-1,-1,-1,-1,-1,-1,-1,-1,-1,-1,-1,-1,-1,-1,-1,-1,-1,-1,-1,-1,-1,-1,-1,-1,-1,-1,-1,-1,-1,-1,-1,-1,-1,-1,-1,-1,-1,-1,-1,-1,-1,-1,-1,-1,-1,-1,-1,-1,-1,-1,-1,-1,-1],"split_conditions":[2E0,1E0,4E0,1E0,3E1,5.8333335E0,5.9E0,1.25E1,2.8E1,1.413369E2,1.7647696E2,3.1E1,7.133333E0,3.2E1,7.133333E0,1.65E1,2.8E1,1.0739113E2,1.413369E2,1.3439018E2,7.133333E0,1.0617818E2,3.9E0,1.3491178E0,9.8720764E1,3E0,1.3444229E2,6E1,1.03E1,5E0,1.3444229E2,1E0,1.3296787E0,1E0,5.8333335E0,3.2147312E1,1.7647696E2,1.3444229E2,3.091452E1,1.3296787E0,3.210803E1,5.9333334E0,3.2147312E1,7.133333E0,1.4144887E2,9.7E0,2.8167753E1,9.7E0,1E0,5.2611583E-1,5.9E1,3.210803E1,1.65E1,2.7911894E1,1.413369E2,1.3444229E2,9.7E0,3.7E0,6.3E1,2.750155E1,1E0,9.3E0,1.3258348E0,-1.19436696E-1,-6.0388114E-2,-3.5790827E-2,6.1731707E-2,-6.094837E-2,9.606641E-3,1.573809E-1,3.598562E-2,8.399438E-2,2.2221196E-1,5.903367E-3,8.813366E-2,1.8517075E-1,8.613002E-2,1.6453035E-1,3.363607E-1,6.0527105E-2,1.6576329E-1,-1.1719377E-2,5.36622E-2,1.5262899E-1,4.6721186E-2,1.3065031E-1,2.6600555E-1,1.8210755E-1,3.4744695E-1,7.0569135E-2,1.8699585E-1,4.8842964E-1,8.816023E-2,2.7659872E-1,1.8123023E-1,1.9507945E-1,1.22129016E-1,2.2909124E-1,3.6855894E-1,4.7119877E-1,2.5493184E-1,3.450465E-2,1.011227E-1,8.318331E-2,1.7267838E-1,3.373239E-1,2.1847153E-1,1.3469784E-1,2.5124118E-1,4.8240706E-1,3.15788E-1,2.87966E-1,2.1971194E-1,1.8302806E-1,4.6911165E-1,3.281634E-2,3.0440333E-1,1.9700529E-1,1.2823825E-1,1.8096398E-1,2.7076516E-1,5.787549E-1,3.3489996E-1,2.2739351E-1,3.3085474E-1],"split_indices":[0,7,0,12,17,21,21,17,17,15,16,17,21,17,21,14,17,16,15,15,21,16,14,18,16,0,15,20,13,0,15,0,18,4,21,19,16,15,19,18,19,21,19,21,15,13,19,13,12,0,20,19,14,19,15,15,13,21,20,19,12,13,18,0,0,0,0,0,0,0,0,0,0,0,0,0,0,0,0,0,0,0,0,0,0,0,0,0,0,0,0,0,0,0,0,0,0,0,0,0,0,0,0,0,0,0,0,0,0,0,0,0,0,0,0,0,0,0,0,0,0,0,0,0,0],"split_type":[0,0,0,0,0,0,0,0,0,0,0,0,0,0,0,0,0,0,0,0,0,0,0,0,0,0,0,0,0,0,0,0,0,0,0,0,0,0,0,0,0,0,0,0,0,0,0,0,0,0,0,0,0,0,0,0,0,0,0,0,0,0,0,0,0,0,0,0,0,0,0,0,0,0,0,0,0,0,0,0,0,0,0,0,0,0,0,0,0,0,0,0,0,0,0,0,0,0,0,0,0,0,0,0,0,0,0,0,0,0,0,0,0,0,0,0,0,0,0,0,0,0,0,0,0],"sum_hessian":[8E4,5.6069E4,2.3931E4,4.2632E4,1.3437E4,1.4392E4,9.539E3,3.9677E4,2.955E3,1.2456E4,9.81E2,1.315E3,1.3077E4,8.73E2,8.666E3,3.0716E4,8.961E3,2.556E3,3.99E2,1.0881E4,1.575E3,8.49E2,1.32E2,1.209E3,1.06E2,1.1795E4,1.282E3,7.97E2,7.6E1,7.815E3,8.51E2,2.7585E4,3.131E3,7.639E3,1.322E3,3.45E2,2.211E3,3.49E2,5E1,1.557E3,9.324E3,1.279E3,2.96E2,1.18E2,7.31E2,7E0,1.25E2,1.083E3,1.26E2,8E0,9.8E1,6.589E3,5.206E3,1.75E2,1.107E3,9.4E1,7.03E2,4.6E1,3E1,4.564E3,3.251E3,1E2,7.51E2,2.154E4,6.045E3,2.758E3,3.73E2,6.28E3,1.359E3,1.68E2,1.154E3,3.08E2,3.7E1,1.899E3,3.12E2,4.7E1,3.02E2,3.6E1,1.4E1,1.356E3,2.01E2,8.108E3,1.216E3,2E2,1.079E3,2.53E2,4.3E1,9.6E1,2.2E1,6.48E2,8.3E1,6E0,1E0,3.1E1,9.4E1,3.21E2,7.62E2,1E2,2.6E1,1.2E1,8.6E1,5.73E3,8.59E2,4.792E3,4.14E2,4E1,1.35E2,9.64E2,1.43E2,1.3E1,8.1E1,2.3E2,4.73E2,3E0,4.3E1,1E0,2.9E1,5.8E2,3.984E3,3.027E3,2.24E2,1.1E1,8.9E1,6.49E2,1.02E2],"tree_param":{"num_deleted":"0","num_feature":"27","num_nodes":"125","size_leaf_vector":"1"}},{"base_weights":[9.4186695E-4,-4.601363E-1,1.0811964E0,-7.1695626E-1,1.16075076E-1,7.424193E-1,1.5921962E0,2.4813615E-1,-7.9151034E-1,7.5787026E-1,-1.7245079E-4,1.4314739E0,6.4512587E-1,1.5339472E0,2.8789992E0,1.2069895E0,1.17709085E-1,-8.605398E-1,2.2795719E-1,6.0934985E-1,1.6466012E0,-9.818475E-2,5.518851E-1,2.4036176E0,1.2956767E0,5.531494E-1,1.3272735E0,1.4044011E0,1.9712065E0,4.1015396E0,2.694924E0,1.0951736E0,3.6765666E0,-4.6827156E-2,1.1083609E0,-9.803056E-1,-4.2679995E-1,1.4626211E-1,1.6745024E0,1.596419E0,4.55563E-1,2.3079712E0,1.2495309E0,4.781763E-1,-1.8227373E-1,4.1033098E-1,1.4573097E0,3.422627E0,2.0939426E0,1.8881315E0,1.1118042E0,3.5568422E-1,7.967744E-1,2.26617E0,1.1940747E0,1.2143859E0,1.6748446E0,2.6185565E0,1.8787119E0,5.0181425E-1,3.468687E0,2.5356596E0,3.730417E0,2.0972495E-1,9.062476E-2,2.2704458E-1,5.1729864E-1,-1.6490351E-2,7.004672E-2,2.6763242E-1,9.0817146E-2,-1.0301989E-1,-6.504892E-3,-5.089109E-2,4.095494E-2,9.866062E-2,2.4357066E-3,1.5058617E-1,3.4126922E-1,1.4366423E-1,3.413935E-1,2.8921759E-2,1.1522217E-1,1.9915776E-1,3.570094E-1,2.618577E-1,1.0986666E-1,3.5957962E-2,1.1960929E-1,-2.7806807E-2,3.7697338E-2,1.2736064E-1,2.7109748E-2,2.7734867E-1,1.2716076E-1,1.833883E-1,3.601664E-1,3.019817E-1,1.829574E-1,1.7208742E-1,3.0251595E-1,1.9911449E-1,9.9144615E-2,2.7736938E-2,9.404486E-2,7.2410196E-2,1.5813321E-1,1.957234E-1,3.4097585E-1,1.0492492E-1,1.8756758E-1,1.823677E-1,1.13308154E-1,1.5954165E-1,2.4167188E-1,2.4622141E-1,3.4858403E-1,1.7771953E-1,2.4703792E-1,2.7183196E-1,4.1429558E-1,2.3748413E-1,3.6841318E-1,3.840945E-1,1.609637E-1],"categories":[],"categories_nodes":[],"categories_segments":[],"categories_sizes":[],"default_left":[0,0,0,0,0,0,0,0,0,0,0,0,0,0,0,0,0,0,0,0,0,0,0,0,0,0,0,0,0,0,0,0,0,0,0,0,0,0,0,0,0,0,0,0,0,0,0,0,0,0,0,0,0,0,0,0,0,0,0,0,0,0,0,0,0,0,0,0,0,0,0,0,0,0,0,0,0,0,0,0,0,0,0,0,0,0,0,0,0,0,0,0,0,0,0,0,0,0,0,0,0,0,0,0,0,0,0,0,0,0,0,0,0,0,0,0,0,0,0,0,0,0,0,0,0],"id":8,"left_children":[1,3,5,7,9,11,13,15,17,19,21,23,25,27,29,31,33,35,37,39,41,43,45,47,49,51,53,55,57,59,61,63,65,67,69,71,73,75,77,79,81,83,85,87,89,91,93,95,97,99,101,103,105,107,109,111,113,115,117,-1,119,121,123,-1,-1,-1,-1,-1,-1,-1,-1,-1,-1,-1,-1,-1,-1,-1,-1,-1,-1,-1,-1,-1,-1,-1,-1,-1,-1,-1,-1,-1,-1,-1,-1,-1,-1,-1,-1,-1,-1,-1,-1,-1,-1,-1,-1,-1,-1,-1,-1,-1,-1,-1,-1,-1,-1,-1,-1,-1,-1,-1,-1,-1,-1],"loss_changes":[3.9847543E4,8.297468E3,4.1418047E3,2.7907656E3,1.2897333E3,9.6398975E2,7.106543E2,3.4777606E2,2.5338477E3,3.4891443E2,7.920393E2,2.318711E2,7.906875E2,5.1434766E2,8.16626E1,8.79274E1,3.993973E2,1.7512402E3,2.696682E2,3.4431018E2,9.664551E1,6.0256323E2,2.8226575E2,6.131018E1,1.682771E2,5.345271E2,1.8463354E2,3.6004883E2,1.1986182E2,1.2757446E1,5.007617E1,5.8681183E1,1.7713074E1,1.8559137E2,1.07117004E2,1.2065449E3,5.013871E2,2.2155843E2,3.0622772E1,8.3956726E1,2.2773035E2,4.919513E1,4.6486206E1,1.3435052E2,5.8131506E2,2.2923065E2,6.930951E1,7.3327026E0,3.5841553E1,6.496912E1,1.2460559E2,2.8101642E2,2.825652E2,5.8685974E1,1.2774133E2,2.0312012E2,1.6732324E2,2.6400269E1,1.0534717E2,0E0,5.9403687E0,4.961438E1,4.6001587E0,0E0,0E0,0E0,0E0,0E0,0E0,0E0,0E0,0E0,0E0,0E0,0E0,0E0,0E0,0E0,0E0,0E0,0E0,0E0,0E0,0E0,0E0,0E0,0E0,0E0,0E0,0E0,0E0,0E0,0E0,0E0,0E0,0E0,0E0,0E0,0E0,0E0,0E0,0E0,0E0,0E0,0E0,0E0,0E0,0E0,0E0,0E0,0E0,0E0,0E0,0E0,0E0,0E0,0E0,0E0,0E0,0E0,0E0,0E0,0E0,0E0,0E0],"parents":[2147483647,0,0,1,1,2,2,3,3,4,4,5,5,6,6,7,7,8,8,9,9,10,10,11,11,12,12,13,13,14,14,15,15,16,16,17,17,18,18,19,19,20,20,21,21,22,22,23,23,24,24,25,25,26,26,27,27,28,28,29,29,30,30,31,31,32,32,33,33,34,34,35,35,36,36,37,37,38,38,39,39,40,40,41,41,42,42,43,43,44,44,45,45,46,46,47,47,48,48,49,49,50,50,51,51,52,52,53,53,54,54,55,55,56,56,57,57,58,58,60,60,61,61,62,62],"right_children":[2,4,6,8,10,12,14,16,18,20,22,24,26,28,30,32,34,36,38,40,42,44,46,48,50,52,54,56,58,60,62,64,66,68,70,72,74,76,78,80,82,84,86,88,90,92,94,96,98,100,102,104,106,108,110,112,114,116,118,-1,120,122,124,-1,-1,-1,-1,-1,-1,-1,-1,-1,-1,-1,-1,-1,-1,-1,-1,-1,-1,-1,-1,-1,-1,-1,-1,-1,-1,-1,-1,-1,-1,-1,-1,-1,-1,-1,-1,-1,-1,-1,-1,-1,-1,-1,-1,-1,-1,-1,-1,-1,-1,-1,-1,-1,-1,-1,-1,-1,-1,-1,-1,-1,-1],"split_conditions":[2E0,1E0,4E0,5.8333335E0,9.7E0,9.7E0,3E1,1.0739113E2,7.133333E0,8.7E1,1.44E1,1.3444229E2,1.44E1,1E0,1.05039474E2,3E1,1.7647696E2,1E0,1E0,6E1,6.1666665E0,8.6932373E-1,8.7E1,5.8333335E0,5.8333335E0,3E0,2.750155E1,5E0,8.6932373E-1,9.4E0,8.8E1,1.3444229E2,1.2370869E0,3.1997725E1,2.7297817E1,1E0,1.67E1,1.3439018E2,9E1,7.35E0,1E0,1.7647696E2,1.0028337E2,8.7E1,1.3296787E0,6E1,1.0312213E2,7E0,6.5E1,1.7647696E2,2.750155E1,1.4139372E2,1E0,7.133333E0,7.25E0,1.0739113E2,1.65E1,1.44E1,1.3296787E0,5.0181425E-1,1E0,3.210803E1,5E0,2.0972495E-1,9.062476E-2,2.2704458E-1,5.1729864E-1,-1.6490351E-2,7.004672E-2,2.6763242E-1,9.0817146E-2,-1.0301989E-1,-6.504892E-3,-5.089109E-2,4.095494E-2,9.866062E-2,2.4357066E-3,1.5058617E-1,3.4126922E-1,1.4366423E-1,3.413935E-1,2.8921759E-2,1.1522217E-1,1.9915776E-1,3.570094E-1,2.618577E-1,1.0986666E-1,3.5957962E-2,1.1960929E-1,-2.7806807E-2,3.7697338E-2,1.2736064E-1,2.7109748E-2,2.7734867E-1,1.2716076E-1,1.833883E-1,3.601664E-1,3.019817E-1,1.829574E-1,1.7208742E-1,3.0251595E-1,1.9911449E-1,9.9144615E-2,2.7736938E-2,9.404486E-2,7.2410196E-2,1.5813321E-1,1.957234E-1,3.4097585E-1,1.0492492E-1,1.8756758E-1,1.823677E-1,1.13308154E-1,1.5954165E-1,2.4167188E-1,2.4622141E-1,3.4858403E-1,1.7771953E-1,2.4703792E-1,2.7183196E-1,4.1429558E-1,2.3748413E-1,3.6841318E-1,3.840945E-1,1.609637E-1],"split_indices":[0,26,0,21,13,13,17,16,21,20,13,15,13,7,16,17,16,0,7,20,21,18,20,21,21,0,19,0,18,13,20,15,18,19,19,12,14,15,20,21,2,16,16,20,18,20,16,17,20,16,19,15,4,21,21,16,14,13,18,0,4,19,22,0,0,0,0,0,0,0,0,0,0,0,0,0,0,0,0,0,0,0,0,0,0,0,0,0,0,0,0,0,0,0,0,0,0,0,0,0,0,0,0,0,0,0,0,0,0,0,0,0,0,0,0,0,0,0,0,0,0,0,0,0,0],"split_type":[0,0,0,0,0,0,0,0,0,0,0,0,0,0,0,0,0,0,0,0,0,0,0,0,0,0,0,0,0,0,0,0,0,0,0,0,0,0,0,0,0,0,0,0,0,0,0,0,0,0,0,0,0,0,0,0,0,0,0,0,0,0,0,0,0,0,0,0,0,0,0,0,0,0,0,0,0,0,0,0,0,0,0,0,0,0,0,0,0,0,0,0,0,0,0,0,0,0,0,0,0,0,0,0,0,0,0,0,0,0,0,0,0,0,0,0,0,0,0,0,0,0,0,0,0],"sum_hessian":[8E4,5.6069E4,2.3931E4,3.8783E4,1.7286E4,1.4392E4,9.539E3,2.781E3,3.6002E4,2.65E3,1.4636E4,1.779E3,1.2613E4,9.128E3,4.11E2,3.32E2,2.449E3,3.3719E4,2.283E3,2.272E3,3.78E2,1.243E4,2.206E3,2.16E2,1.563E3,1.1116E4,1.497E3,7.045E3,2.083E3,5.1E1,3.6E2,3.19E2,1.3E1,2.101E3,3.48E2,2.6422E4,7.297E3,2.162E3,1.21E2,3.05E2,1.967E3,1.4E2,2.38E2,1.582E3,1.0848E4,1.909E3,2.97E2,4.8E1,1.68E2,3.68E2,1.195E3,6.141E3,4.975E3,1.84E2,1.313E3,4.141E3,2.904E3,2.57E2,1.826E3,1.8E1,3.3E1,3.15E2,4.5E1,4.9E1,2.7E2,8E0,5E0,1.815E3,2.86E2,3.8E1,3.1E2,2.5056E4,1.366E3,6.645E3,6.52E2,2.73E2,1.889E3,1.12E2,9E0,2.82E2,2.3E1,1.589E3,3.78E2,1.14E2,2.6E1,2.2E1,2.16E2,1.359E3,2.23E2,9.262E3,1.586E3,2.64E2,1.645E3,3.5E1,2.62E2,6E0,4.2E1,3.5E1,1.33E2,3.23E2,4.5E1,1.42E2,1.053E3,5.417E3,7.24E2,4.555E3,4.2E2,1.47E2,3.7E1,1.085E3,2.28E2,4.85E2,3.656E3,2.626E3,2.78E2,2.21E2,3.6E1,1.562E3,2.64E2,1.8E1,1.5E1,2.79E2,3.6E1,4.2E1,3E0],"tree_param":{"num_deleted":"0","num_feature":"27","num_nodes":"125","size_leaf_vector":"1"}},{"base_weights":[9.883358E-4,-4.140475E-1,9.733709E-1,-6.110246E-1,2.1090694E-1,6.683846E-1,1.4334017E0,1.6222103E-1,-7.146027E-1,8.661592E-1,1.1720988E-1,6.022124E-1,1.6072952E0,2.2392614E0,1.3519716E0,8.389317E-1,-1.0876513E-2,-7.780078E-1,1.5384749E-1,1.7211962E0,7.4821556E-1,3.922187E-3,7.879321E-1,4.8246795E-1,1.006125E0,1.4673569E0,2.5971344E0,2.702247E0,2.0023303E0,1.2659582E0,2.139447E0,1.8749737E0,6.731068E-1,8.235643E-1,-1.3537043E-1,-8.8515383E-1,-3.910517E-1,5.078916E-2,7.893759E-1,1.5305922E0,2.9599004E0,5.55043E-1,1.4868965E0,-1.158018E-1,4.408244E-1,6.9651103E-1,1.9850764E0,4.1670167E-1,1.1443888E0,1.6499224E0,9.1058564E-1,1.3261598E0,2.372555E0,3.7555995E0,2.220738E0,2.5383883E0,4.0052323E0,2.723771E0,1.8683008E0,1.1894319E0,1.8285542E0,3.1303866E0,2.0035102E0,1.6149627E-1,3.138727E-1,4.6440963E-2,1.6699085E-1,2.101432E-1,5.835445E-2,-2.7958108E-2,7.4661665E-2,-9.49224E-2,-2.4980713E-2,-4.6443995E-2,2.558373E-2,6.153507E-2,-3.6821433E-3,1.845339E-1,6.5031014E-2,1.2606083E-1,2.3489001E-1,3.2449615E-1,1.1136518E-1,4.454155E-2,1.3423195E-1,2.5207528E-1,1.2989874E-1,4.809721E-2,-2.0150755E-2,1.1928809E-1,3.370516E-2,5.554318E-2,1.3882023E-1,3.4114382E-1,1.6829744E-1,3.615443E-2,1.2005985E-1,1.0168512E-1,1.9572149E-1,2.9164428E-1,1.4914188E-1,8.0745146E-2,1.5705796E-1,2.3064147E-1,1.2004172E-1,2.0473269E-1,3.5278922E-1,3.8898787E-1,1.3216925E-2,2.0056975E-1,3.5827821E-1,3.698454E-1,2.3321012E-1,4.0710306E-1,1.0156379E-1,3.6725911E-1,2.4314986E-1,1.7118481E-1,2.6565456E-1,1.01406254E-1,1.4364982E-1,1.7230463E-1,2.9333133E-1,4.7139978E-1,2.7768362E-1,1.8565832E-1,2.817933E-1],"categories":[],"categories_nodes":[],"categories_segments":[],"categories_sizes":[],"default_left":[0,0,0,0,0,0,0,0,0,0,0,0,0,0,0,0,0,0,0,0,0,0,0,0,0,0,0,0,0,0,0,0,0,0,0,0,0,0,0,0,0,0,0,0,0,0,0,0,0,0,0,0,0,0,0,0,0,0,0,0,0,0,0,0,0,0,0,0,0,0,0,0,0,0,0,0,0,0,0,0,0,0,0,0,0,0,0,0,0,0,0,0,0,0,0,0,0,0,0,0,0,0,0,0,0,0,0,0,0,0,0,0,0,0,0,0,0,0,0,0,0,0,0,0,0,0,0],"id":9,"left_children":[1,3,5,7,9,11,13,15,17,19,21,23,25,27,29,31,33,35,37,39,41,43,45,47,49,51,53,55,57,59,61,63,65,67,69,71,73,75,77,79,81,83,85,87,89,91,93,95,97,99,101,103,105,107,109,111,113,115,117,119,121,123,125,-1,-1,-1,-1,-1,-1,-1,-1,-1,-1,-1,-1,-1,-1,-1,-1,-1,-1,-1,-1,-1,-1,-1,-1,-1,-1,-1,-1,-1,-1,-1,-1,-1,-1,-1,-1,-1,-1,-1,-1,-1,-1,-1,-1,-1,-1,-1,-1,-1,-1,-1,-1,-1,-1,-1,-1,-1,-1,-1,-1,-1,-1,-1,-1],"loss_changes":[3.22867E4,6.9024424E3,3.3567754E3,3.4146504E3,8.249273E2,8.932656E2,6.2299805E2,5.9002795E2,2.0703652E3,1.6823462E2,8.934235E2,6.49896E2,1.2736401E2,9.046289E1,5.843379E2,1.7500629E2,4.1688928E2,1.4524004E3,1.6756544E2,4.3398315E1,2.1021747E2,5.2626624E2,1.8456299E2,4.51125E2,1.87573E2,1.0319263E2,4.224066E1,5.239038E1,5.1187256E1,3.3433008E2,1.0849707E2,4.1262207E1,1.8353882E2,1.585715E2,4.443629E2,1.1167559E3,3.609214E2,1.0898651E2,5.1224823E1,3.6364532E1,1.0069855E1,1.00726685E2,5.6172546E1,4.040044E2,1.6848297E2,1.5341052E2,4.5967438E1,4.076432E2,9.514465E1,7.514673E1,1.8108594E2,8.622485E1,3.448535E1,1.2622772E1,1.917453E1,5.4312378E1,1.9633484E0,1.5751038E1,5.6374023E1,2.9676758E2,1.0381348E2,4.3458557E1,8.4753174E1,0E0,0E0,0E0,0E0,0E0,0E0,0E0,0E0,0E0,0E0,0E0,0E0,0E0,0E0,0E0,0E0,0E0,0E0,0E0,0E0,0E0,0E0,0E0,0E0,0E0,0E0,0E0,0E0,0E0,0E0,0E0,0E0,0E0,0E0,0E0,0E0,0E0,0E0,0E0,0E0,0E0,0E0,0E0,0E0,0E0,0E0,0E0,0E0,0E0,0E0,0E0,0E0,0E0,0E0,0E0,0E0,0E0,0E0,0E0,0E0,0E0,0E0,0E0,0E0],"parents":[2147483647,0,0,1,1,2,2,3,3,4,4,5,5,6,6,7,7,8,8,9,9,10,10,11,11,12,12,13,13,14,14,15,15,16,16,17,17,18,18,19,19,20,20,21,21,22,22,23,23,24,24,25,25,26,26,27,27,28,28,29,29,30,30,31,31,32,32,33,33,34,34,35,35,36,36,37,37,38,38,39,39,40,40,41,41,42,42,43,43,44,44,45,45,46,46,47,47,48,48,49,49,50,50,51,51,52,52,53,53,54,54,55,55,56,56,57,57,58,58,59,59,60,60,61,61,62,62],"right_children":[2,4,6,8,10,12,14,16,18,20,22,24,26,28,30,32,34,36,38,40,42,44,46,48,50,52,54,56,58,60,62,64,66,68,70,72,74,76,78,80,82,84,86,88,90,92,94,96,98,100,102,104,106,108,110,112,114,116,118,120,122,124,126,-1,-1,-1,-1,-1,-1,-1,-1,-1,-1,-1,-1,-1,-1,-1,-1,-1,-1,-1,-1,-1,-1,-1,-1,-1,-1,-1,-1,-1,-1,-1,-1,-1,-1,-1,-1,-1,-1,-1,-1,-1,-1,-1,-1,-1,-1,-1,-1,-1,-1,-1,-1,-1,-1,-1,-1,-1,-1,-1,-1,-1,-1,-1,-1],"split_conditions":[2E0,1E0,4E0,9.7E0,2.750155E1,2.5E1,5.9E0,5.8333335E0,1E0,5.9E0,3.210803E1,1E0,8.8E1,9.7E0,7.133333E0,2.750155E1,8.6932373E-1,1E0,8.7E1,9E1,7.133333E0,1E0,2.8E1,1.65E1,1.3444229E2,3.210803E1,9.7E0,8.9E1,1.3444229E2,8.8E1,1.3444229E2,1.788401E2,3.1997725E1,2.750155E1,1.3296787E0,1.65E1,1.44E1,1.3444229E2,2.7381699E1,2.4E1,5.65E0,1.7647696E2,8.573029E-1,8.6932373E-1,9.6E0,1.44E1,6E1,1E0,1.3296787E0,1.0739113E2,1.4139372E2,6E1,1.7078372E2,1.06E2,7.45E0,8.7708086E-1,1E0,6.5E1,1.413369E2,5E0,1.44E1,1.07E1,1.413369E2,1.6149627E-1,3.138727E-1,4.6440963E-2,1.6699085E-1,2.101432E-1,5.835445E-2,-2.7958108E-2,7.4661665E-2,-9.49224E-2,-2.4980713E-2,-4.6443995E-2,2.558373E-2,6.153507E-2,-3.6821433E-3,1.845339E-1,6.5031014E-2,1.2606083E-1,2.3489001E-1,3.2449615E-1,1.1136518E-1,4.454155E-2,1.3423195E-1,2.5207528E-1,1.2989874E-1,4.809721E-2,-2.0150755E-2,1.1928809E-1,3.370516E-2,5.554318E-2,1.3882023E-1,3.4114382E-1,1.6829744E-1,3.615443E-2,1.2005985E-1,1.0168512E-1,1.9572149E-1,2.9164428E-1,1.4914188E-1,8.0745146E-2,1.5705796E-1,2.3064147E-1,1.2004172E-1,2.0473269E-1,3.5278922E-1,3.8898787E-1,1.3216925E-2,2.0056975E-1,3.5827821E-1,3.698454E-1,2.3321012E-1,4.0710306E-1,1.0156379E-1,3.6725911E-1,2.4314986E-1,1.7118481E-1,2.6565456E-1,1.01406254E-1,1.4364982E-1,1.7230463E-1,2.9333133E-1,4.7139978E-1,2.7768362E-1,1.8565832E-1,2.817933E-1],"split_indices":[0,7,0,13,19,17,21,21,4,21,19,7,20,13,21,19,18,0,20,20,21,0,17,14,15,19,13,20,15,20,15,16,19,19,18,14,13,15,19,17,21,16,18,18,13,13,20,4,18,16,15,20,16,20,21,18,8,20,15,0,13,13,15,0,0,0,0,0,0,0,0,0,0,0,0,0,0,0,0,0,0,0,0,0,0,0,0,0,0,0,0,0,0,0,0,0,0,0,0,0,0,0,0,0,0,0,0,0,0,0,0,0,0,0,0,0,0,0,0,0,0,0,0,0,0,0,0],"split_type":[0,0,0,0,0,0,0,0,0,0,0,0,0,0,0,0,0,0,0,0,0,0,0,0,0,0,0,0,0,0,0,0,0,0,0,0,0,0,0,0,0,0,0,0,0,0,0,0,0,0,0,0,0,0,0,0,0,0,0,0,0,0,0,0,0,0,0,0,0,0,0,0,0,0,0,0,0,0,0,0,0,0,0,0,0,0,0,0,0,0,0,0,0,0,0,0,0,0,0,0,0,0,0,0,0,0,0,0,0,0,0,0,0,0,0,0,0,0,0,0,0,0,0,0,0,0,0],"sum_hessian":[8E4,5.6069E4,2.3931E4,4.2632E4,1.3437E4,1.4392E4,9.539E3,5.036E3,3.7596E4,1.68E3,1.1757E4,1.3446E4,9.46E2,8.73E2,8.666E3,1.025E3,4.011E3,3.5038E4,2.558E3,2.02E2,1.478E3,1.0059E4,1.698E3,1.0373E4,3.073E3,8.31E2,1.15E2,2.92E2,5.81E2,7.815E3,8.51E2,1.4E2,8.85E2,5.2E2,3.491E3,2.7439E4,7.599E3,2.202E3,3.56E2,1.77E2,2.5E1,1.173E3,3.05E2,7.896E3,2.163E3,1.579E3,1.19E2,9.437E3,9.36E2,3.95E2,2.678E3,7.21E2,1.1E2,2.6E1,8.9E1,2.62E2,3E1,8.8E1,4.93E2,6.882E3,9.33E2,1E2,7.51E2,1.18E2,2.2E1,7.33E2,1.52E2,8.1E1,4.39E2,3.001E3,4.9E2,2.4925E4,2.514E3,6.825E3,7.74E2,2.95E2,1.907E3,4E1,3.16E2,1.35E2,4.2E1,2.1E1,4E0,1.031E3,1.42E2,4.5E1,2.6E2,9.91E2,6.905E3,2.61E2,1.902E3,1.313E3,2.66E2,1.9E1,1E2,8.818E3,6.19E2,8.11E2,1.25E2,4.2E1,3.53E2,2.318E3,3.6E2,8E1,6.41E2,8.8E1,2.2E1,2.5E1,1E0,7.9E1,1E1,3.7E1,2.25E2,2.9E1,1E0,1.8E1,7E1,4.14E2,7.9E1,4.028E3,2.854E3,8.54E2,7.9E1,1.6E1,8.4E1,6.39E2,1.12E2],"tree_param":{"num_deleted":"0","num_feature":"27","num_nodes":"127","size_leaf_vector":"1"}},{"base_weights":[1.0207442E-3,-3.7258196E-1,8.7633E-1,-5.8365023E-1,1.0097879E-1,6.017548E-1,1.29049E0,2.464314E-1,-6.4777553E-1,7.254794E-1,9.153257E-3,5.3270036E-1,1.3788395E0,1.9477344E0,1.1998141E0,1.1004199E0,1.302581E-1,-7.0919687E-1,2.5930613E-1,5.936461E-1,1.6238549E0,-1.13187425E-1,5.5810195E-1,4.6226498E-1,1.2536707E0,1.9589138E0,1.2025836E0,2.923146E0,1.8081177E0,1.1082374E0,1.8399687E0,9.012818E-1,2.3232753E0,-1.6082564E-2,1.0112833E0,-7.6011974E-1,9.924962E-2,1.0429544E0,1.3016358E-1,1.5561274E0,4.3721148E-1,1.4179915E0,2.653673E0,4.7894353E-1,-1.9008352E-1,1.3474547E0,4.3848974E-1,1.1654866E0,3.95423E-1,2.1285713E0,1.1275891E0,1.7341777E0,3.4311507E0,1.9366525E0,1.0897723E0,4.0108714E0,2.6471484E0,1.6458422E0,2.5351279E0,1.0413233E0,1.8446691E0,2.6304765E0,1.6945727E0,1.8038423E-1,7.267177E-2,1.5677807E-1,4.3331954E-1,-1.3249117E-2,7.326092E-2,2.4283181E-1,8.405434E-2,-8.256517E-2,-1.4133711E-2,7.833848E-2,5.0175673E-4,2.4995644E-1,8.9622684E-2,-2.5244725E-3,1.033562E-1,2.6728213E-1,1.3616998E-1,1.23610675E-1,3.179021E-2,1.2353843E-1,2.4773E-1,2.3226355E-1,3.9357716E-1,1.21549286E-1,3.604144E-2,-2.9023731E-2,3.693693E-2,1.1589495E-1,2.524081E-1,2.8823733E-2,1.2977141E-1,2.098126E-1,1.0248224E-1,2.2168705E-2,6.1377723E-2,3.4076628E-1,1.9350927E-1,9.5394306E-2,2.0387082E-1,2.805306E-1,1.566201E-1,2.764511E-1,4.4785008E-1,1.3878413E-1,2.4899223E-1,1.9293319E-1,9.996785E-2,1.0959392E-1,4.0808326E-1,2.3539773E-1,3.806115E-1,1.496429E-1,2.5101972E-1,4.346055E-1,2.38263E-1,9.258094E-2,1.3720639E-1,2.6759633E-1,1.7336981E-1,2.4682222E-1,3.7132078E-1,1.5436925E-1,2.629249E-1],"categories":[],"categories_nodes":[],"categories_segments":[],"categories_sizes":[],"default_left":[0,0,0,0,0,0,0,0,0,0,0,0,0,0,0,0,0,0,0,0,0,0,0,0,0,0,0,0,0,0,0,0,0,0,0,0,0,0,0,0,0,0,0,0,0,0,0,0,0,0,0,0,0,0,0,0,0,0,0,0,0,0,0,0,0,0,0,0,0,0,0,0,0,0,0,0,0,0,0,0,0,0,0,0,0,0,0,0,0,0,0,0,0,0,0,0,0,0,0,0,0,0,0,0,0,0,0,0,0,0,0,0,0,0,0,0,0,0,0,0,0,0,0,0,0,0,0],"id":10,"left_children":[1,3,5,7,9,11,13,15,17,19,21,23,25,27,29,31,33,35,37,39,41,43,45,47,49,51,53,55,57,59,61,63,65,67,69,71,73,75,77,79,81,83,85,87,89,91,93,95,97,99,101,103,105,107,109,111,113,115,117,119,121,123,125,-1,-1,-1,-1,-1,-1,-1,-1,-1,-1,-1,-1,-1,-1,-1,-1,-1,-1,-1,-1,-1,-1,-1,-1,-1,-1,-1,-1,-1,-1,-1,-1,-1,-1,-1,-1,-1,-1,-1,-1,-1,-1,-1,-1,-1,-1,-1,-1,-1,-1,-1,-1,-1,-1,-1,-1,-1,-1,-1,-1,-1,-1,-1,-1],"loss_changes":[2.6162086E4,5.6044595E3,2.7207227E3,2.0646016E3,9.9131824E2,7.716094E2,5.662119E2,2.7586075E2,2.0060635E3,2.6148987E2,1.0122801E3,6.7075586E2,1.17676025E2,1.5200684E2,4.895752E2,7.899725E1,3.1589426E2,1.3882734E3,2.310104E2,2.90513E2,5.6233643E1,5.613253E2,2.5877057E2,5.657112E2,1.27323E2,8.4045044E1,7.266785E1,3.2312744E1,1.153374E2,3.5972754E2,1.1599609E2,4.4064835E1,6.3056763E1,1.8329512E2,8.239746E1,1.2862129E3,1.2886653E2,6.6793E1,2.754823E2,5.498175E1,1.5830765E2,4.2977753E1,1.038208E1,1.2326962E2,6.114089E2,7.714453E1,3.077889E2,1.3494226E2,4.1719763E2,2.9784973E1,1.610138E2,3.8428406E1,1.2056335E1,3.2677643E1,5.7447998E1,1.033844E0,3.079425E1,1.03563965E2,4.018286E1,2.5584961E2,5.1632812E1,1.911914E1,1.21170654E2,0E0,0E0,0E0,0E0,0E0,0E0,0E0,0E0,0E0,0E0,0E0,0E0,0E0,0E0,0E0,0E0,0E0,0E0,0E0,0E0,0E0,0E0,0E0,0E0,0E0,0E0,0E0,0E0,0E0,0E0,0E0,0E0,0E0,0E0,0E0,0E0,0E0,0E0,0E0,0E0,0E0,0E0,0E0,0E0,0E0,0E0,0E0,0E0,0E0,0E0,0E0,0E0,0E0,0E0,0E0,0E0,0E0,0E0,0E0,0E0,0E0,0E0,0E0,0E0],"parents":[2147483647,0,0,1,1,2,2,3,3,4,4,5,5,6,6,7,7,8,8,9,9,10,10,11,11,12,12,13,13,14,14,15,15,16,16,17,17,18,18,19,19,20,20,21,21,22,22,23,23,24,24,25,25,26,26,27,27,28,28,29,29,30,30,31,31,32,32,33,33,34,34,35,35,36,36,37,37,38,38,39,39,40,40,41,41,42,42,43,43,44,44,45,45,46,46,47,47,48,48,49,49,50,50,51,51,52,52,53,53,54,54,55,55,56,56,57,57,58,58,59,59,60,60,61,61,62,62],"right_children":[2,4,6,8,10,12,14,16,18,20,22,24,26,28,30,32,34,36,38,40,42,44,46,48,50,52,54,56,58,60,62,64,66,68,70,72,74,76,78,80,82,84,86,88,90,92,94,96,98,100,102,104,106,108,110,112,114,116,118,120,122,124,126,-1,-1,-1,-1,-1,-1,-1,-1,-1,-1,-1,-1,-1,-1,-1,-1,-1,-1,-1,-1,-1,-1,-1,-1,-1,-1,-1,-1,-1,-1,-1,-1,-1,-1,-1,-1,-1,-1,-1,-1,-1,-1,-1,-1,-1,-1,-1,-1,-1,-1,-1,-1,-1,-1,-1,-1,-1,-1,-1,-1,-1,-1,-1,-1],"split_conditions":[2E0,1E0,4E0,5.8333335E0,5.8333335E0,1E0,9.7E0,1.0739113E2,7.133333E0,1.7702992E2,7.15E0,7.133333E0,5.8333335E0,1.3444229E2,1.44E1,1.3409663E0,1.7647696E2,1E0,8.6932373E-1,1.0680768E2,8.7E1,6E1,1.3444229E2,5.8333335E0,1.0680768E2,1.3491178E0,1.0796415E2,1.10988106E2,2.3E1,1E0,1.0848013E2,1.3444229E2,1.6E1,1.413369E2,1.3400446E2,1.65E1,8.6520004E-1,1.0617818E2,1.3296787E0,2.750155E1,8.6932373E-1,1.3177398E0,1E0,2.7342041E1,8.7E1,1.3333353E0,1.413369E2,1.0848013E2,3E0,5.9E1,1.7702992E2,8.6520004E-1,2.3E1,3E0,5.9E1,6E0,1.63E1,1.413369E2,3.7E0,1E0,1.0617818E2,1.321809E0,1.7702992E2,1.8038423E-1,7.267177E-2,1.5677807E-1,4.3331954E-1,-1.3249117E-2,7.326092E-2,2.4283181E-1,8.405434E-2,-8.256517E-2,-1.4133711E-2,7.833848E-2,5.0175673E-4,2.4995644E-1,8.9622684E-2,-2.5244725E-3,1.033562E-1,2.6728213E-1,1.3616998E-1,1.23610675E-1,3.179021E-2,1.2353843E-1,2.4773E-1,2.3226355E-1,3.9357716E-1,1.21549286E-1,3.604144E-2,-2.9023731E-2,3.693693E-2,1.1589495E-1,2.524081E-1,2.8823733E-2,1.2977141E-1,2.098126E-1,1.0248224E-1,2.2168705E-2,6.1377723E-2,3.4076628E-1,1.9350927E-1,9.5394306E-2,2.0387082E-1,2.805306E-1,1.566201E-1,2.764511E-1,4.4785008E-1,1.3878413E-1,2.4899223E-1,1.9293319E-1,9.996785E-2,1.0959392E-1,4.0808326E-1,2.3539773E-1,3.806115E-1,1.496429E-1,2.5101972E-1,4.346055E-1,2.38263E-1,9.258094E-2,1.3720639E-1,2.6759633E-1,1.7336981E-1,2.4682222E-1,3.7132078E-1,1.5436925E-1,2.629249E-1],"split_indices":[0,26,0,21,21,12,13,16,21,16,21,21,21,15,13,18,16,25,18,16,20,20,15,21,16,18,16,16,17,4,16,15,17,15,15,14,18,16,18,19,18,18,0,19,20,18,15,16,0,20,16,18,17,0,20,17,14,15,14,26,16,18,16,0,0,0,0,0,0,0,0,0,0,0,0,0,0,0,0,0,0,0,0,0,0,0,0,0,0,0,0,0,0,0,0,0,0,0,0,0,0,0,0,0,0,0,0,0,0,0,0,0,0,0,0,0,0,0,0,0,0,0,0,0,0,0,0],"split_type":[0,0,0,0,0,0,0,0,0,0,0,0,0,0,0,0,0,0,0,0,0,0,0,0,0,0,0,0,0,0,0,0,0,0,0,0,0,0,0,0,0,0,0,0,0,0,0,0,0,0,0,0,0,0,0,0,0,0,0,0,0,0,0,0,0,0,0,0,0,0,0,0,0,0,0,0,0,0,0,0,0,0,0,0,0,0,0,0,0,0,0,0,0,0,0,0,0,0,0,0,0,0,0,0,0,0,0,0,0,0,0,0,0,0,0,0,0,0,0,0,0,0,0,0,0,0,0],"sum_hessian":[8E4,5.6069E4,2.3931E4,3.8783E4,1.7286E4,1.4392E4,9.539E3,2.781E3,3.6002E4,2.215E3,1.5071E4,1.3219E4,1.173E3,1.154E3,8.385E3,3.32E2,2.449E3,3.3719E4,2.283E3,1.933E3,2.82E2,1.2325E4,2.746E3,1.2044E4,1.175E3,2.71E2,9.02E2,1.42E2,1.012E3,7.338E3,1.047E3,2.87E2,4.5E1,2.101E3,3.48E2,3.1721E4,1.998E3,3.22E2,1.961E3,2.69E2,1.664E3,2.37E2,4.5E1,1.416E3,1.0909E4,3.6E2,2.386E3,1.044E3,1.1E4,1.46E2,1.029E3,2.37E2,3.4E1,1.18E2,7.84E2,2.6E1,1.16E2,8.3E2,1.82E2,6.729E3,6.09E2,1.6E2,8.87E2,4.5E1,2.42E2,3.4E1,1.1E1,1.819E3,2.82E2,3.6E1,3.12E2,2.8683E4,3.038E3,2.41E2,1.757E3,2.8E1,2.94E2,1.674E3,2.87E2,3.8E1,2.31E2,2.15E2,1.449E3,2.04E2,3.3E1,3.8E1,7E0,1.95E2,1.221E3,9.253E3,1.656E3,3.12E2,4.8E1,2.032E3,3.54E2,1.35E2,9.09E2,6.127E3,4.873E3,1.7E1,1.29E2,8.66E2,1.63E2,3E1,2.07E2,2.3E1,1.1E1,6.1E1,5.7E1,7.4E1,7.1E2,1E0,2.5E1,9.5E1,2.1E1,7.1E2,1.2E2,1.2E1,1.7E2,4.99E3,1.739E3,6.9E1,5.4E2,1.42E2,1.8E1,7.66E2,1.21E2],"tree_param":{"num_deleted":"0","num_feature":"27","num_nodes":"127","size_leaf_vector":"1"}},{"base_weights":[1.0547143E-3,-3.3525425E-1,7.8898895E-1,-4.9812904E-1,1.8150243E-1,5.417928E-1,1.1618512E0,1.7871332E-1,-5.887947E-1,9.453105E-2,7.9430765E-1,4.919909E-1,1.5226476E0,1.1085575E0,2.1676672E0,1.0148373E0,5.3502005E-2,-7.015841E-1,-2.057062E-1,7.3106515E-1,-1.271534E-2,7.0053E-1,1.8727722E0,1.0502247E0,4.146147E-1,1.3758856E0,2.4240491E0,1.6706568E0,1.0264016E0,1.9578015E0,2.8149128E0,2.117212E0,8.2207793E-1,-9.300983E-2,9.1028374E-1,-7.6783866E-1,-9.869324E-2,-2.9585242E-1,7.9357755E-1,6.171787E-1,1.687446E0,5.527064E-1,-8.650872E-2,5.6544197E-1,1.3942417E0,3.8550203E0,1.7320518E0,9.353617E-1,1.8094041E0,3.1245077E-1,1.0147514E0,2.484254E0,1.1931412E0,2.1020794E0,3.3023715E0,2.7114272E0,1.5572945E0,9.3157065E-1,1.5886639E0,1.8438193E0,2.9798102E0,4.4500413E0,2.5991776E0,1.8001226E-1,3.4088767E-1,6.4842544E-2,1.886848E-1,-2.1114016E-2,7.675611E-2,7.6158404E-2,2.0203336E-1,-8.040896E-2,3.3026714E-2,7.641396E-2,-2.2397589E-2,-3.877704E-2,4.815985E-2,1.5847924E-1,6.713536E-2,1.4347638E-1,4.7970697E-2,3.4330893E-1,1.4843233E-1,4.131087E-2,1.10221125E-1,-1.8811142E-2,4.74824E-2,1.2092042E-1,4.2374227E-2,2.8061932E-1,1.272598E-1,4.1823694E-1,7.817888E-2,2.654723E-1,1.5637939E-1,1.6964428E-1,7.9123065E-2,1.639304E-1,2.9519895E-1,1.4560804E-2,5.2152067E-2,1.7962468E-1,9.098953E-2,3.7793374E-1,2.1938959E-1,1.1138912E-1,2.7082253E-1,3.2899508E-1,1.7898749E-1,1.274427E-1,3.4288016E-1,2.4201596E-1,3.858341E-1,2.4707492E-1,1.4268105E-1,8.778935E-2,1.620755E-1,2.543605E-1,1.4425188E-1,2.6949167E-1,1.6718659E-1,4.0095758E-1,2.3407689E-1,8.648469E-2,4.6973452E-1,2.3942737E-1,4.1138855E-1],"categories":[],"categories_nodes":[],"categories_segments":[],"categories_sizes":[],"default_left":[0,0,0,0,0,0,0,0,0,0,0,0,0,0,0,0,0,0,0,0,0,0,0,0,0,0,0,0,0,0,0,0,0,0,0,0,0,0,0,0,0,0,0,0,0,0,0,0,0,0,0,0,0,0,0,0,0,0,0,0,0,0,0,0,0,0,0,0,0,0,0,0,0,0,0,0,0,0,0,0,0,0,0,0,0,0,0,0,0,0,0,0,0,0,0,0,0,0,0,0,0,0,0,0,0,0,0,0,0,0,0,0,0,0,0,0,0,0,0,0,0,0,0,0,0,0,0],"id":11,"left_children":[1,3,5,7,9,11,13,15,17,19,21,23,25,27,29,31,33,35,37,39,41,43,45,47,49,51,53,55,57,59,61,63,65,67,69,71,73,75,77,79,81,83,85,87,89,91,93,95,97,99,101,103,105,107,109,111,113,115,117,119,121,123,125,-1,-1,-1,-1,-1,-1,-1,-1,-1,-1,-1,-1,-1,-1,-1,-1,-1,-1,-1,-1,-1,-1,-1,-1,-1,-1,-1,-1,-1,-1,-1,-1,-1,-1,-1,-1,-1,-1,-1,-1,-1,-1,-1,-1,-1,-1,-1,-1,-1,-1,-1,-1,-1,-1,-1,-1,-1,-1,-1,-1,-1,-1,-1,-1],"loss_changes":[2.1199678E4,4.719313E3,2.2051855E3,2.616338E3,7.1612366E2,7.023257E2,5.0897656E2,5.272802E2,1.6243594E3,8.0343164E2,1.6758496E2,5.9127905E2,8.860742E1,4.1676562E2,5.955371E1,1.376549E2,5.501513E2,1.1601045E3,7.707031E2,1.8379388E2,4.2033755E2,1.4334094E2,3.0422241E1,1.4367273E2,7.3745435E2,1.185647E2,2.0206238E1,1.319314E2,4.2022754E2,3.7024902E1,2.9000305E1,3.3592224E1,1.02320496E2,3.8067365E2,1.04102295E2,1.0419873E3,3.1116904E2,5.608753E2,6.7403564E1,1.6992706E2,5.8728577E1,8.8757935E1,5.0830972E2,1.1707135E2,3.9367554E1,4.778427E0,1.54096985E1,1.5771606E2,3.752997E1,3.5864838E2,1.4176855E2,2.3295654E1,5.9059814E1,2.1184113E1,1.7836914E0,2.8076721E1,1.20791016E2,2.4902295E2,1.5542896E2,4.3935913E1,1.3646698E1,6.577118E0,2.242865E1,0E0,0E0,0E0,0E0,0E0,0E0,0E0,0E0,0E0,0E0,0E0,0E0,0E0,0E0,0E0,0E0,0E0,0E0,0E0,0E0,0E0,0E0,0E0,0E0,0E0,0E0,0E0,0E0,0E0,0E0,0E0,0E0,0E0,0E0,0E0,0E0,0E0,0E0,0E0,0E0,0E0,0E0,0E0,0E0,0E0,0E0,0E0,0E0,0E0,0E0,0E0,0E0,0E0,0E0,0E0,0E0,0E0,0E0,0E0,0E0,0E0,0E0,0E0,0E0],"parents":[2147483647,0,0,1,1,2,2,3,3,4,4,5,5,6,6,7,7,8,8,9,9,10,10,11,11,12,12,13,13,14,14,15,15,16,16,17,17,18,18,19,19,20,20,21,21,22,22,23,23,24,24,25,25,26,26,27,27,28,28,29,29,30,30,31,31,32,32,33,33,34,34,35,35,36,36,37,37,38,38,39,39,40,40,41,41,42,42,43,43,44,44,45,45,46,46,47,47,48,48,49,49,50,50,51,51,52,52,53,53,54,54,55,55,56,56,57,57,58,58,59,59,60,60,61,61,62,62],"right_children":[2,4,6,8,10,12,14,16,18,20,22,24,26,28,30,32,34,36,38,40,42,44,46,48,50,52,54,56,58,60,62,64,66,68,70,72,74,76,78,80,82,84,86,88,90,92,94,96,98,100,102,104,106,108,110,112,114,116,118,120,122,124,126,-1,-1,-1,-1,-1,-1,-1,-1,-1,-1,-1,-1,-1,-1,-1,-1,-1,-1,-1,-1,-1,-1,-1,-1,-1,-1,-1,-1,-1,-1,-1,-1,-1,-1,-1,-1,-1,-1,-1,-1,-1,-1,-1,-1,-1,-1,-1,-1,-1,-1,-1,-1,-1,-1,-1,-1,-1,-1,-1,-1,-1,-1,-1,-1],"split_conditions":[2E0,1E0,4E0,9.7E0,1.7647696E2,2.8E1,2.8E1,2.750155E1,1.25E1,1.0739113E2,3E1,2.750155E1,3.210803E1,1.3444229E2,1E0,8.6520004E-1,3.210803E1,1.44E1,1E0,8.8E1,6E1,1.44E1,3.9E0,8.7E1,3.210803E1,2.7467564E1,1.6725716E2,6E1,1.413369E2,1.3491178E0,5.4E1,8.6E1,1.3296787E0,2.7E1,8.8E1,1E0,2.750155E1,1E0,1.3444229E2,6.1E1,5.5333333E0,7.2E0,8.7E1,1E1,2.7015068E1,9.7E0,1.3427126E2,6.1E1,1.3296787E0,3E0,8.573029E-1,5.9666667E0,1.65E1,1.3444229E2,4.9E0,3.245032E1,2.750155E1,1E0,2.750155E1,8.7708086E-1,1E0,4.5E1,3.2068302E1,1.8001226E-1,3.4088767E-1,6.4842544E-2,1.886848E-1,-2.1114016E-2,7.675611E-2,7.6158404E-2,2.0203336E-1,-8.040896E-2,3.3026714E-2,7.641396E-2,-2.2397589E-2,-3.877704E-2,4.815985E-2,1.5847924E-1,6.713536E-2,1.4347638E-1,4.7970697E-2,3.4330893E-1,1.4843233E-1,4.131087E-2,1.10221125E-1,-1.8811142E-2,4.74824E-2,1.2092042E-1,4.2374227E-2,2.8061932E-1,1.272598E-1,4.1823694E-1,7.817888E-2,2.654723E-1,1.5637939E-1,1.6964428E-1,7.9123065E-2,1.639304E-1,2.9519895E-1,1.4560804E-2,5.2152067E-2,1.7962468E-1,9.098953E-2,3.7793374E-1,2.1938959E-1,1.1138912E-1,2.7082253E-1,3.2899508E-1,1.7898749E-1,1.274427E-1,3.4288016E-1,2.4201596E-1,3.858341E-1,2.4707492E-1,1.4268105E-1,8.778935E-2,1.620755E-1,2.543605E-1,1.4425188E-1,2.6949167E-1,1.6718659E-1,4.0095758E-1,2.3407689E-1,8.648469E-2,4.6973452E-1,2.3942737E-1,4.1138855E-1],"split_indices":[0,7,0,13,16,17,17,19,17,16,17,19,19,15,12,18,19,13,2,20,20,13,14,20,19,19,16,20,15,18,20,20,18,17,20,3,19,11,15,20,21,21,20,13,19,13,15,20,18,0,18,21,14,15,14,19,19,12,19,18,26,20,19,0,0,0,0,0,0,0,0,0,0,0,0,0,0,0,0,0,0,0,0,0,0,0,0,0,0,0,0,0,0,0,0,0,0,0,0,0,0,0,0,0,0,0,0,0,0,0,0,0,0,0,0,0,0,0,0,0,0,0,0,0,0,0,0],"split_type":[0,0,0,0,0,0,0,0,0,0,0,0,0,0,0,0,0,0,0,0,0,0,0,0,0,0,0,0,0,0,0,0,0,0,0,0,0,0,0,0,0,0,0,0,0,0,0,0,0,0,0,0,0,0,0,0,0,0,0,0,0,0,0,0,0,0,0,0,0,0,0,0,0,0,0,0,0,0,0,0,0,0,0,0,0,0,0,0,0,0,0,0,0,0,0,0,0,0,0,0,0,0,0,0,0,0,0,0,0,0,0,0,0,0,0,0,0,0,0,0,0,0,0,0,0,0,0],"sum_hessian":[8E4,5.6069E4,2.3931E4,4.2632E4,1.3437E4,1.4392E4,9.539E3,5.036E3,3.7596E4,1.1768E4,1.669E3,1.3698E4,6.94E2,9.061E3,4.78E2,6.55E2,4.381E3,2.9044E4,8.552E3,1.696E3,1.0072E4,1.537E3,1.32E2,1.666E3,1.2032E4,5.99E2,9.5E1,1.153E3,7.908E3,3.64E2,1.14E2,9.6E1,5.59E2,3.742E3,6.39E2,2.6168E4,2.876E3,7.845E3,7.07E2,1.517E3,1.79E2,1.162E3,8.91E3,1.288E3,2.49E2,7E0,1.25E2,1.449E3,2.17E2,1.0283E4,1.749E3,8.3E1,5.16E2,7.2E1,2.3E1,1.11E2,1.042E3,6.769E3,1.139E3,3.3E2,3.4E1,1.1E1,1.03E2,7.9E1,1.7E1,4.82E2,7.7E1,3.291E3,4.51E2,5.65E2,7.4E1,2.5332E4,8.36E2,3.64E2,2.512E3,7.016E3,8.29E2,9.3E1,6.14E2,2.17E2,1.3E3,1.7E1,1.62E2,9.28E2,2.34E2,7.545E3,1.365E3,2.31E2,1.057E3,1.8E1,2.31E2,6E0,1E0,1.7E1,1.08E2,2.29E2,1.22E3,1.91E2,2.6E1,5.72E3,4.563E3,2.05E2,1.544E3,1.3E1,7E1,4.92E2,2.4E1,1.3E1,5.9E1,2E0,2.1E1,9.1E1,2E1,1.28E2,9.14E2,6.282E3,4.87E2,1.49E2,9.9E2,5.3E1,2.77E2,1.1E1,2.3E1,1E0,1E1,9.3E1,1E1],"tree_param":{"num_deleted":"0","num_feature":"27","num_nodes":"127","size_leaf_vector":"1"}},{"base_weights":[1.0823968E-3,-3.0166274E-1,7.103804E-1,-4.4828442E-1,1.6352732E-1,4.8782218E-1,1.0460795E0,-5.1244676E-1,4.1310978E-1,1.01670444E-1,9.480362E-1,1.0599774E0,4.0704492E-1,1.7370169E0,9.7645855E-1,-5.909305E-1,3.1132365E-2,3.1444415E-1,1.0955197E0,1.9181017E-2,6.642228E-1,1.7085569E0,8.184976E-1,9.514928E-1,2.0189993E0,3.2699987E-1,1.0008057E0,2.435698E0,1.6168418E0,9.0179086E-1,1.6604676E0,3.4818266E-2,-6.929911E-1,-7.802422E-2,8.1079704E-1,1.0146087E0,1.8231453E-1,9.153895E-1,2.1203566E0,6.244734E-1,-8.168144E-2,1.4856234E0,5.4657197E-1,2.7242465E0,1.5097657E0,6.882668E-1,1.7054243E0,1.7705164E0,8.379686E-1,2.924911E0,1.7559743E0,8.379731E-1,2.5226924E-1,8.718982E-1,1.7701768E0,2.1883698E0,3.7133703E-1,1.4750473E0,2.4697647E0,8.287646E-1,1.4397941E0,1.5412273E0,2.6056054E0,8.421352E-2,-7.150472E-3,-7.223403E-2,6.653328E-2,7.581933E-2,-2.1718811E-2,1.9590634E-1,6.452547E-2,1.9758986E-1,8.5378885E-2,5.493525E-3,6.718507E-2,1.6881078E-1,7.3354915E-2,1.7330624E-1,3.0376035E-1,4.7730293E-2,1.2971996E-1,4.5985088E-2,-1.5801927E-2,1.2766187E-1,2.9564238E-1,3.9195083E-2,1.24973774E-1,3.7556586E-1,1.9925436E-1,1.8931891E-1,1.11436E-1,4.3447576E-2,1.17591776E-1,3.352792E-1,1.4419289E-1,3.0314487E-1,1.5999325E-1,7.239469E-2,1.6640563E-1,2.504711E-1,4.0472767E-1,1.6119927E-1,3.3241192E-1,1.5931134E-1,7.282892E-2,1.6197303E-2,8.258936E-2,1.6471949E-1,7.180483E-2,3.015997E-1,1.6117182E-1,1.8018734E-1,2.776013E-1,1.3504009E-1,2.2774284E-1,2.3111287E-1,3.7456954E-1,1.4184168E-1,7.291646E-2,2.2724116E-1,1.3280426E-1,2.4808739E-1,1.39157E-1,3.5083744E-1,2.3607294E-1],"categories":[],"categories_nodes":[],"categories_segments":[],"categories_sizes":[],"default_left":[0,0,0,0,0,0,0,0,0,0,0,0,0,0,0,0,0,0,0,0,0,0,0,0,0,0,0,0,0,0,0,0,0,0,0,0,0,0,0,0,0,0,0,0,0,0,0,0,0,0,0,0,0,0,0,0,0,0,0,0,0,0,0,0,0,0,0,0,0,0,0,0,0,0,0,0,0,0,0,0,0,0,0,0,0,0,0,0,0,0,0,0,0,0,0,0,0,0,0,0,0,0,0,0,0,0,0,0,0,0,0,0,0,0,0,0,0,0,0,0,0,0,0,0,0],"id":12,"left_children":[1,3,5,7,9,11,13,15,17,19,21,23,25,27,29,31,33,35,37,39,41,43,45,47,49,51,53,55,57,59,61,63,65,67,69,71,73,75,77,79,81,83,85,87,89,91,93,95,97,99,101,103,105,107,109,111,-1,113,115,117,119,121,123,-1,-1,-1,-1,-1,-1,-1,-1,-1,-1,-1,-1,-1,-1,-1,-1,-1,-1,-1,-1,-1,-1,-1,-1,-1,-1,-1,-1,-1,-1,-1,-1,-1,-1,-1,-1,-1,-1,-1,-1,-1,-1,-1,-1,-1,-1,-1,-1,-1,-1,-1,-1,-1,-1,-1,-1,-1,-1,-1,-1,-1,-1],"loss_changes":[1.717935E4,3.824436E3,1.7875098E3,2.356497E3,6.520132E2,6.647717E2,4.5721387E2,1.6927656E3,1.9868423E2,5.780496E2,9.534503E1,1.8326855E2,5.991858E2,6.927832E1,4.4125684E2,2.2143271E3,4.2618668E2,2.3886726E2,6.691638E1,6.6337305E2,1.5313312E2,2.4558289E1,9.5966064E1,1.4737573E2,3.7753906E1,4.2429517E2,1.470249E2,3.1690369E1,8.6698975E1,3.0596338E2,9.2003174E1,4.1748236E2,1.188877E3,5.1138364E2,1.1563922E2,6.1696716E1,1.3558905E2,4.358484E1,1.4274063E1,1.5303723E2,3.8510785E2,5.73992E1,1.5118057E2,9.119797E0,1.6234863E1,9.0453766E1,4.161142E1,3.6878296E1,1.3141754E2,8.255829E0,2.670285E1,1.16288025E2,5.0228833E2,1.5209113E2,3.738507E1,1.952716E1,0E0,6.1233643E1,1.259613E1,4.0337646E2,8.379431E1,1.0328198E2,1.2497986E1,0E0,0E0,0E0,0E0,0E0,0E0,0E0,0E0,0E0,0E0,0E0,0E0,0E0,0E0,0E0,0E0,0E0,0E0,0E0,0E0,0E0,0E0,0E0,0E0,0E0,0E0,0E0,0E0,0E0,0E0,0E0,0E0,0E0,0E0,0E0,0E0,0E0,0E0,0E0,0E0,0E0,0E0,0E0,0E0,0E0,0E0,0E0,0E0,0E0,0E0,0E0,0E0,0E0,0E0,0E0,0E0,0E0,0E0,0E0,0E0,0E0,0E0],"parents":[2147483647,0,0,1,1,2,2,3,3,4,4,5,5,6,6,7,7,8,8,9,9,10,10,11,11,12,12,13,13,14,14,15,15,16,16,17,17,18,18,19,19,20,20,21,21,22,22,23,23,24,24,25,25,26,26,27,27,28,28,29,29,30,30,31,31,32,32,33,33,34,34,35,35,36,36,37,37,38,38,39,39,40,40,41,41,42,42,43,43,44,44,45,45,46,46,47,47,48,48,49,49,50,50,51,51,52,52,53,53,54,54,55,55,57,57,58,58,59,59,60,60,61,61,62,62],"right_children":[2,4,6,8,10,12,14,16,18,20,22,24,26,28,30,32,34,36,38,40,42,44,46,48,50,52,54,56,58,60,62,64,66,68,70,72,74,76,78,80,82,84,86,88,90,92,94,96,98,100,102,104,106,108,110,112,-1,114,116,118,120,122,124,-1,-1,-1,-1,-1,-1,-1,-1,-1,-1,-1,-1,-1,-1,-1,-1,-1,-1,-1,-1,-1,-1,-1,-1,-1,-1,-1,-1,-1,-1,-1,-1,-1,-1,-1,-1,-1,-1,-1,-1,-1,-1,-1,-1,-1,-1,-1,-1,-1,-1,-1,-1,-1,-1,-1,-1,-1,-1,-1,-1,-1,-1],"split_conditions":[2E0,1E0,4E0,1E0,3E1,9.7E0,5.8333335E0,1.413369E2,3.210803E1,1.3296787E0,8.6932373E-1,1.3491178E0,1.44E1,8.7708086E-1,7.133333E0,1.3444229E2,1.3296787E0,2.750155E1,1.3296787E0,8.6932373E-1,9.7E0,2.7755768E1,1.3371139E0,1.3444229E2,5.733333E0,1.3444229E2,8.7E1,1E0,1.3296787E0,1.7647696E2,3.222415E1,6E1,1E0,8.6932373E-1,1.0796415E2,8.573029E-1,1E0,9.334917E-1,1.6E1,1.43E1,2.750155E1,8.9E1,1.44E1,1.19440125E2,1.06E1,1E0,1.3427126E2,8.21396E-1,1.415104E2,1E0,7.133333E0,8.730135E-1,1.4139372E2,6.1E1,2.7467564E1,5E0,3.7133703E-1,1.7485518E2,1.56E1,1.0739113E2,9.8E0,2.750155E1,1.3509174E2,8.421352E-2,-7.150472E-3,-7.223403E-2,6.653328E-2,7.581933E-2,-2.1718811E-2,1.9590634E-1,6.452547E-2,1.9758986E-1,8.5378885E-2,5.493525E-3,6.718507E-2,1.6881078E-1,7.3354915E-2,1.7330624E-1,3.0376035E-1,4.7730293E-2,1.2971996E-1,4.5985088E-2,-1.5801927E-2,1.2766187E-1,2.9564238E-1,3.9195083E-2,1.24973774E-1,3.7556586E-1,1.9925436E-1,1.8931891E-1,1.11436E-1,4.3447576E-2,1.17591776E-1,3.352792E-1,1.4419289E-1,3.0314487E-1,1.5999325E-1,7.239469E-2,1.6640563E-1,2.504711E-1,4.0472767E-1,1.6119927E-1,3.3241192E-1,1.5931134E-1,7.282892E-2,1.6197303E-2,8.258936E-2,1.6471949E-1,7.180483E-2,3.015997E-1,1.6117182E-1,1.8018734E-1,2.776013E-1,1.3504009E-1,2.2774284E-1,2.3111287E-1,3.7456954E-1,1.4184168E-1,7.291646E-2,2.2724116E-1,1.3280426E-1,2.4808739E-1,1.39157E-1,3.5083744E-1,2.3607294E-1],"split_indices":[0,7,0,12,17,13,21,15,19,18,18,18,13,18,21,15,18,19,18,18,13,19,18,15,21,15,20,2,18,16,19,20,2,18,16,18,0,18,17,13,19,20,13,16,13,12,15,18,15,6,21,18,15,20,19,0,0,16,14,16,13,19,15,0,0,0,0,0,0,0,0,0,0,0,0,0,0,0,0,0,0,0,0,0,0,0,0,0,0,0,0,0,0,0,0,0,0,0,0,0,0,0,0,0,0,0,0,0,0,0,0,0,0,0,0,0,0,0,0,0,0,0,0,0,0],"split_type":[0,0,0,0,0,0,0,0,0,0,0,0,0,0,0,0,0,0,0,0,0,0,0,0,0,0,0,0,0,0,0,0,0,0,0,0,0,0,0,0,0,0,0,0,0,0,0,0,0,0,0,0,0,0,0,0,0,0,0,0,0,0,0,0,0,0,0,0,0,0,0,0,0,0,0,0,0,0,0,0,0,0,0,0,0,0,0,0,0,0,0,0,0,0,0,0,0,0,0,0,0,0,0,0,0,0,0,0,0,0,0,0,0,0,0,0,0,0,0,0,0,0,0,0,0],"sum_hessian":[8E4,5.6069E4,2.3931E4,4.2632E4,1.3437E4,1.4392E4,9.539E3,3.9677E4,2.955E3,1.2456E4,9.81E2,1.779E3,1.2613E4,8.71E2,8.668E3,3.4671E4,5.006E3,2.583E3,3.72E2,1.0864E4,1.592E3,1.41E2,8.4E2,1.6E3,1.79E2,1.1116E4,1.497E3,1.25E2,7.46E2,7.817E3,8.51E2,4.862E3,2.9809E4,4.392E3,6.14E2,4.09E2,2.174E3,3.18E2,5.4E1,1.551E3,9.313E3,1.98E2,1.394E3,2.1E1,1.2E2,7.34E2,1.06E2,1.93E2,1.407E3,3.8E1,1.41E2,1.417E3,9.699E3,1.284E3,2.13E2,1.07E2,1.8E1,6.42E2,1.04E2,6.885E3,9.32E2,7.58E2,9.3E1,5.65E2,4.297E3,2.9179E4,6.3E2,6.26E2,3.766E3,7.6E1,5.38E2,5.7E1,3.52E2,1.726E3,4.48E2,5.9E1,2.59E2,4E1,1.4E1,1.274E3,2.77E2,1.15E3,8.163E3,1.75E2,2.3E1,1.144E3,2.5E2,7E0,1.4E1,5.9E1,6.1E1,4.84E2,2.5E2,1.3E1,9.3E1,2.1E1,1.72E2,1.238E3,1.69E2,3E1,8E0,1.31E2,1E1,1.78E2,1.239E3,8.381E3,1.318E3,2.11E2,1.073E3,2.2E1,1.91E2,6.7E1,4E1,5.58E2,8.4E1,9.5E1,9E0,9.93E2,5.892E3,1.08E2,8.24E2,1.02E2,6.56E2,1.7E1,7.6E1],"tree_param":{"num_deleted":"0","num_feature":"27","num_nodes":"125","size_leaf_vector":"1"}},{"base_weights":[1.0991096E-3,-2.7142924E-1,6.3960254E-1,-4.034218E-1,1.4734657E-1,2.8141913E-1,8.1869906E-1,3.340886E-1,-4.6614084E-1,6.6722184E-2,7.073868E-1,1.9813097E-1,8.121402E-1,1.3903619E0,7.3745954E-1,1.1123289E0,2.2336702E-1,-5.198993E-1,2.862046E-1,6.4578885E-1,-3.43592E-2,1.5563828E0,5.9375143E-1,7.768327E-1,1.0091236E-1,6.9263065E-1,1.5443971E0,2.2155087E0,1.2602017E0,6.4246666E-1,1.3209846E0,1.5890125E0,7.4559736E-1,7.9334244E-2,1.0077585E0,-8.230431E-3,-5.9324986E-1,1.0967058E0,1.797859E-1,1.3896939E0,5.257418E-1,-1.3858646E-1,3.484401E-1,1.3973355E0,2.9099889E0,4.3104157E-1,1.3291703E0,6.849011E-1,1.6277262E0,4.0664423E-2,7.4252623E-1,1.3862041E0,5.8744127E-1,2.4135835E0,1.3611368E0,2.0037563E0,3.173068E0,1.1162529E0,2.1117988E0,5.2387404E-1,1.0058104E0,2.1636968E0,1.1978501E0,2.6036283E-1,1.3769099E-1,6.338845E-2,2.2490136E-1,-2.8966374E-3,8.032221E-2,8.3361074E-2,2.3380236E-1,-1.3370447E-2,7.752543E-2,-6.820335E-2,-5.7673655E-3,2.2927396E-1,8.800485E-2,4.8949216E-3,9.253379E-2,2.6807818E-1,1.1730112E-1,3.7144653E-2,1.1906797E-1,3.540019E-2,-2.109888E-2,1.2581074E-1,2.9618451E-2,2.6591176E-1,1.1955514E-1,3.058898E-1,1.0465398E-1,3.277989E-2,1.1852223E-1,1.1524574E-1,2.6074585E-1,1.3824348E-1,5.463413E-2,1.3214187E-1,2.5424665E-1,-2.8058107E-3,5.3266462E-2,1.5970087E-1,6.496893E-2,1.1572956E-1,1.9221397E-1,4.766726E-2,1.2674402E-1,1.642375E-2,2.500463E-1,1.20063536E-1,2.6762554E-1,2.9036033E-1,1.7912018E-1,2.4620803E-1,4.396727E-1,2.0024732E-1,1.0155244E-1,1.9914864E-1,3.971892E-1,4.17352E-2,8.7120235E-2,9.609355E-2,2.0060885E-1,3.320609E-1,1.9769292E-1,1.1236532E-1,2.2254495E-1],"categories":[],"categories_nodes":[],"categories_segments":[],"categories_sizes":[],"default_left":[0,0,0,0,0,0,0,0,0,0,0,0,0,0,0,0,0,0,0,0,0,0,0,0,0,0,0,0,0,0,0,0,0,0,0,0,0,0,0,0,0,0,0,0,0,0,0,0,0,0,0,0,0,0,0,0,0,0,0,0,0,0,0,0,0,0,0,0,0,0,0,0,0,0,0,0,0,0,0,0,0,0,0,0,0,0,0,0,0,0,0,0,0,0,0,0,0,0,0,0,0,0,0,0,0,0,0,0,0,0,0,0,0,0,0,0,0,0,0,0,0,0,0,0,0,0,0],"id":13,"left_children":[1,3,5,7,9,11,13,15,17,19,21,23,25,27,29,31,33,35,37,39,41,43,45,47,49,51,53,55,57,59,61,63,65,67,69,71,73,75,77,79,81,83,85,87,89,91,93,95,97,99,101,103,105,107,109,111,113,115,117,119,121,123,125,-1,-1,-1,-1,-1,-1,-1,-1,-1,-1,-1,-1,-1,-1,-1,-1,-1,-1,-1,-1,-1,-1,-1,-1,-1,-1,-1,-1,-1,-1,-1,-1,-1,-1,-1,-1,-1,-1,-1,-1,-1,-1,-1,-1,-1,-1,-1,-1,-1,-1,-1,-1,-1,-1,-1,-1,-1,-1,-1,-1,-1,-1,-1,-1],"loss_changes":[1.3921171E4,3.0993452E3,1.5349941E3,1.9721841E3,6.067175E2,3.5253314E2,7.399033E2,2.8772498E2,1.5893125E3,6.8766626E2,1.6221674E2,3.8800696E2,9.361798E1,2.1029224E2,7.7357324E2,7.153827E1,3.3060687E2,1.3763389E3,2.2587062E2,1.5519342E2,3.991492E2,3.877591E1,1.7807935E2,7.64834E1,2.2831029E2,6.718118E1,2.076715E1,4.818579E1,2.0800073E2,5.1728467E2,2.002727E2,3.515149E1,3.8378754E1,1.9397868E2,1.0322583E2,4.5221753E2,1.5250938E3,7.675766E1,2.260653E2,6.455649E1,1.5396588E2,2.805051E2,1.0140027E2,4.265027E1,2.3484344E0,9.4916565E1,5.798535E1,8.593988E1,2.3538742E1,1.8263084E2,3.918152E1,1.2742523E1,6.0482452E1,4.4748993E0,2.359375E1,3.7451477E1,3.0065277E1,1.2918994E2,4.73667E1,3.3491357E2,1.3075928E2,4.702173E1,1.2772534E2,0E0,0E0,0E0,0E0,0E0,0E0,0E0,0E0,0E0,0E0,0E0,0E0,0E0,0E0,0E0,0E0,0E0,0E0,0E0,0E0,0E0,0E0,0E0,0E0,0E0,0E0,0E0,0E0,0E0,0E0,0E0,0E0,0E0,0E0,0E0,0E0,0E0,0E0,0E0,0E0,0E0,0E0,0E0,0E0,0E0,0E0,0E0,0E0,0E0,0E0,0E0,0E0,0E0,0E0,0E0,0E0,0E0,0E0,0E0,0E0,0E0,0E0,0E0,0E0],"parents":[2147483647,0,0,1,1,2,2,3,3,4,4,5,5,6,6,7,7,8,8,9,9,10,10,11,11,12,12,13,13,14,14,15,15,16,16,17,17,18,18,19,19,20,20,21,21,22,22,23,23,24,24,25,25,26,26,27,27,28,28,29,29,30,30,31,31,32,32,33,33,34,34,35,35,36,36,37,37,38,38,39,39,40,40,41,41,42,42,43,43,44,44,45,45,46,46,47,47,48,48,49,49,50,50,51,51,52,52,53,53,54,54,55,55,56,56,57,57,58,58,59,59,60,60,61,61,62,62],"right_children":[2,4,6,8,10,12,14,16,18,20,22,24,26,28,30,32,34,36,38,40,42,44,46,48,50,52,54,56,58,60,62,64,66,68,70,72,74,76,78,80,82,84,86,88,90,92,94,96,98,100,102,104,106,108,110,112,114,116,118,120,122,124,126,-1,-1,-1,-1,-1,-1,-1,-1,-1,-1,-1,-1,-1,-1,-1,-1,-1,-1,-1,-1,-1,-1,-1,-1,-1,-1,-1,-1,-1,-1,-1,-1,-1,-1,-1,-1,-1,-1,-1,-1,-1,-1,-1,-1,-1,-1,-1,-1,-1,-1,-1,-1,-1,-1,-1,-1,-1,-1,-1,-1,-1,-1,-1,-1],"split_conditions":[2E0,1E0,3E0,5.8333335E0,1.413369E2,1.7647696E2,1.0739113E2,1.3444229E2,7.133333E0,1.3444229E2,9.7E0,1.0739113E2,8.7E1,2.750155E1,1.7647696E2,1.04E1,1.413369E2,8.6932373E-1,6E1,9.8E0,1E0,3.2595688E1,1.44E1,8.8E1,1E0,6E1,2.7428892E1,1.3296787E0,3.218601E1,5E0,9.7E0,2.7467564E1,1.65E1,1.7647696E2,8.8E1,8.7E1,1.3296787E0,1.0848013E2,8.7E1,1.0680768E2,1.44E1,2.750155E1,1E0,2.7540335E1,3.432553E1,3.2147312E1,8.8E1,6.1E1,1.3491178E0,1.3333353E0,5.9E1,1E0,1.3143123E0,2.4498135E1,3.2768723E1,6.1E1,1.7E1,5.8333335E0,3.4E1,1E0,3E1,1.3481062E2,7.45E0,2.6036283E-1,1.3769099E-1,6.338845E-2,2.2490136E-1,-2.8966374E-3,8.032221E-2,8.3361074E-2,2.3380236E-1,-1.3370447E-2,7.752543E-2,-6.820335E-2,-5.7673655E-3,2.2927396E-1,8.800485E-2,4.8949216E-3,9.253379E-2,2.6807818E-1,1.1730112E-1,3.7144653E-2,1.1906797E-1,3.540019E-2,-2.109888E-2,1.2581074E-1,2.9618451E-2,2.6591176E-1,1.1955514E-1,3.058898E-1,1.0465398E-1,3.277989E-2,1.1852223E-1,1.1524574E-1,2.6074585E-1,1.3824348E-1,5.463413E-2,1.3214187E-1,2.5424665E-1,-2.8058107E-3,5.3266462E-2,1.5970087E-1,6.496893E-2,1.1572956E-1,1.9221397E-1,4.766726E-2,1.2674402E-1,1.642375E-2,2.500463E-1,1.20063536E-1,2.6762554E-1,2.9036033E-1,1.7912018E-1,2.4620803E-1,4.396727E-1,2.0024732E-1,1.0155244E-1,1.9914864E-1,3.971892E-1,4.17352E-2,8.7120235E-2,9.609355E-2,2.0060885E-1,3.320609E-1,1.9769292E-1,1.1236532E-1,2.2254495E-1],"split_indices":[0,7,0,21,15,16,16,15,21,15,13,16,20,19,16,13,15,18,20,13,0,19,13,20,12,20,19,18,19,0,13,19,14,16,20,20,18,16,20,16,13,19,26,19,19,19,20,20,18,18,20,26,18,19,19,20,17,21,17,7,17,15,21,0,0,0,0,0,0,0,0,0,0,0,0,0,0,0,0,0,0,0,0,0,0,0,0,0,0,0,0,0,0,0,0,0,0,0,0,0,0,0,0,0,0,0,0,0,0,0,0,0,0,0,0,0,0,0,0,0,0,0,0,0,0,0,0],"split_type":[0,0,0,0,0,0,0,0,0,0,0,0,0,0,0,0,0,0,0,0,0,0,0,0,0,0,0,0,0,0,0,0,0,0,0,0,0,0,0,0,0,0,0,0,0,0,0,0,0,0,0,0,0,0,0,0,0,0,0,0,0,0,0,0,0,0,0,0,0,0,0,0,0,0,0,0,0,0,0,0,0,0,0,0,0,0,0,0,0,0,0,0,0,0,0,0,0,0,0,0,0,0,0,0,0,0,0,0,0,0,0,0,0,0,0,0,0,0,0,0,0,0,0,0,0,0,0],"sum_hessian":[8E4,5.6069E4,2.3931E4,4.2632E4,1.3437E4,7.978E3,1.5953E4,3.341E3,3.9291E4,1.1747E4,1.69E3,6.897E3,1.081E3,1.983E3,1.397E4,4.15E2,2.926E3,3.6671E4,2.62E3,1.745E3,1.0002E4,1.98E2,1.492E3,9.91E2,5.906E3,9.31E2,1.5E2,2.68E2,1.715E3,1.2016E4,